{"classifier":{"brain":{"layers":[{"0":{},"1":{},"2":{},"3":{},"4":{},"5":{},"6":{},"7":{},"8":{},"9":{},"10":{},"11":{},"12":{},"13":{},"14":{},"15":{},"16":{},"17":{},"18":{},"19":{},"20":{},"21":{},"22":{},"23":{},"24":{},"25":{},"26":{},"27":{},"28":{},"29":{},"30":{},"31":{},"32":{},"33":{},"34":{},"35":{},"36":{},"37":{},"38":{},"39":{},"40":{},"41":{},"42":{},"43":{},"44":{},"45":{},"46":{},"47":{},"48":{},"49":{},"50":{},"51":{},"52":{},"53":{},"54":{},"55":{},"56":{},"57":{},"58":{},"59":{},"60":{},"61":{},"62":{},"63":{},"64":{},"65":{},"66":{},"67":{},"68":{},"69":{},"70":{},"71":{},"72":{},"73":{},"74":{},"75":{},"76":{},"77":{},"78":{},"79":{},"80":{},"81":{},"82":{},"83":{},"84":{},"85":{}},{"0":{"bias":-0.21095392028808138,"weights":{"0":-0.30058822996471596,"1":-0.5489605679645961,"2":0.7486916620661088,"3":0.08373791122351594,"4":0.3832626194510161,"5":0.20075182783959733,"6":0.16012975019998243,"7":0.37563609776621515,"8":-0.1712681380600703,"9":-0.08482433703582602,"10":-0.2994091744439836,"11":-0.34412412331105885,"12":-0.11927768424634104,"13":-0.3099891502309824,"14":-0.2997692324066244,"15":-0.3407915537979778,"16":-0.3520028136078952,"17":0.2763211931959879,"18":0.137578924509799,"19":0.49196564498011663,"20":0.2208883012221493,"21":0.3929087010649744,"22":0.441617554374521,"23":0.3515050555208018,"24":0.3398059182097103,"25":0.563774989373999,"26":0.8557117610463095,"27":0.6986006585450741,"28":0.5832724210221043,"29":0.06332359008898883,"30":0.42453878912136384,"31":0.30708385124051674,"32":0.20806965247742024,"33":-0.0059817268158824655,"34":0.07479230340449591,"35":0.0502148491044685,"36":-0.6708798700679608,"37":0.09988281565778565,"38":-0.5305083713083596,"39":-0.6408722800999009,"40":-0.5657990376491259,"41":-0.6988995518908541,"42":-0.4935505625253884,"43":-0.626725337767261,"44":-0.4462679521906996,"45":-0.7017254955277369,"46":-0.7010488280642935,"47":-0.6590616946909925,"48":-0.6393192681711549,"49":-0.6529612481560647,"50":0.6852513290133863,"51":0.6908605192282311,"52":0.4028673328511561,"53":0.6145305534563121,"54":0.9806001323408341,"55":0.42269955835258316,"56":0.3610163461115353,"57":0.17934878572061444,"58":0.479437821590514,"59":0.4329839113007767,"60":0.2167362718381245,"61":0.17828704192484834,"62":-0.2819954125140817,"63":-0.3903873616217821,"64":-0.08163235554743835,"65":-0.22699522914145884,"66":-0.10699920707293399,"67":-0.10023377848419446,"68":0.19291765786781054,"69":0.038531187386890674,"70":0.23899629745569623,"71":0.2457373673455931,"72":0.23488007812032338,"73":0.21676408189973487,"74":0.051936924987685276,"75":-0.10944138297960922,"76":0.08734572425133483,"77":0.18273477282503497,"78":0.17904026445632149,"79":0.09133350321101016,"80":0.03264041652864311,"81":0.16502255187230278,"82":0.15584256197043203,"83":0.22131136449365785,"84":0.31680780500719186,"85":0.29593471529119253}},"1":{"bias":-0.1660592059476016,"weights":{"0":-0.9535074121441257,"1":-0.8494201236363151,"2":-0.06965077932007595,"3":0.02691565238243861,"4":-0.33259889820969574,"5":-0.13109310696891271,"6":0.16846441994307854,"7":0.009392429306017799,"8":0.06337682605731453,"9":0.20571211341200288,"10":-0.027036394264003522,"11":-0.08126986460609363,"12":0.06111844629642607,"13":-0.03465736482659093,"14":0.032283327158053765,"15":-0.2218096237863618,"16":-0.2194619732881966,"17":0.15974859397219332,"18":0.18987328464105466,"19":-0.15232564128097517,"20":-0.1731931698567603,"21":0.3392596148864065,"22":0.2440188349224903,"23":0.13059862635198619,"24":0.4090608599502611,"25":0.44676409783161997,"26":0.14900983590166172,"27":0.4545885152925918,"28":0.5465986819640641,"29":0.037824125386501095,"30":0.2745570901861251,"31":0.26445765872955934,"32":0.050258267197271236,"33":0.23895824073010005,"34":0.08085626897055206,"35":0.28247322192669394,"36":-0.13949374851933813,"37":0.07334764819932282,"38":-0.2758473794464093,"39":-0.2717951615179402,"40":-0.09054192866973285,"41":-0.29182855828443166,"42":-0.28642188538988317,"43":-0.1488883986055021,"44":-0.2830265759691663,"45":-0.21567197779531416,"46":-0.2776694360241211,"47":-0.09830825453185282,"48":0.03866122258979495,"49":0.038719551812275356,"50":-0.15301227081864036,"51":-0.0920935391889788,"52":-0.09643641364553719,"53":0.48473512813294145,"54":-0.06805360178166876,"55":-0.2849966298880127,"56":-0.08336374919796634,"57":-0.20899080949402876,"58":-0.2696404678171979,"59":-0.30986624769321175,"60":-0.18454255872613895,"61":0.0388997378678002,"62":-0.5519399847995728,"63":-0.37037732530675505,"64":-0.7148648732874737,"65":-0.5185018385930847,"66":-0.03779469968613668,"67":-0.5896948973355043,"68":0.3588018190892445,"69":0.12902592207131,"70":0.2978984015858255,"71":0.09924355256784918,"72":0.06429426387888433,"73":0.2988290314445216,"74":0.31754351240337503,"75":0.6685124007326212,"76":0.2509643419082902,"77":0.20272124466179198,"78":0.36957082480376935,"79":0.492837801105559,"80":0.4887068151087805,"81":0.45540238402055416,"82":0.5486904183258287,"83":0.5287666989449327,"84":0.3523067188699418,"85":0.4674087810324316}},"2":{"bias":0.023265054190526695,"weights":{"0":-0.8941110618741172,"1":-0.9379254056666225,"2":-1.1139218001144242,"3":0.0816730993155029,"4":-0.8855971269418554,"5":-0.09968939752521794,"6":-0.45708193149075727,"7":-0.6130009923871971,"8":0.20043630066226664,"9":0.2545376733135407,"10":0.2591221592129262,"11":0.14653113032948,"12":0.3512818180822764,"13":0.0820494708502086,"14":0.1977833914078072,"15":0.41851808090759307,"16":0.290175280883821,"17":-0.0851311224987763,"18":-0.05414886376680998,"19":0.12908847654635305,"20":-0.13210340651215258,"21":-0.7288622218251294,"22":-0.5356195590611825,"23":-0.20613987520640908,"24":-0.3228978201972107,"25":-0.5022884488490971,"26":-0.4964795387485755,"27":-0.6091357692156626,"28":-0.1642905559885139,"29":-0.22256894136501895,"30":-0.14164206647581487,"31":-0.10603806355393454,"32":-0.1796076271582391,"33":-0.2460050375744292,"34":-0.2040009572459859,"35":0.0681748851127381,"36":0.08805812816365717,"37":0.08601815799952207,"38":0.03611746932347294,"39":0.33308952627040245,"40":0.230015107471569,"41":0.37585326819703124,"42":0.30244399008256995,"43":0.31458371207052666,"44":0.11545938575542082,"45":0.2613242233935596,"46":0.10089281795634815,"47":0.1457138247140565,"48":0.06893575404769672,"49":0.0513225526093033,"50":-0.1519540570960201,"51":-0.3126333914837892,"52":0.04254120363408019,"53":-0.08177672859390002,"54":0.01459362367444449,"55":-1.0310524650500137,"56":-0.8164928499967439,"57":-0.7196375417697118,"58":-0.8975246807857492,"59":-0.9372728794629925,"60":-0.4232932384875517,"61":-0.247774070578098,"62":0.8782643559614564,"63":0.8501410885739475,"64":0.7673250036054983,"65":0.780567704468806,"66":0.6158148309581215,"67":0.6626104589704782,"68":0.056392607839927056,"69":0.009325199552108117,"70":-0.08071817701383352,"71":-0.005326715812995528,"72":0.25454770241630986,"73":-0.1331243841272946,"74":0.0035061785760396075,"75":0.023685519082821252,"76":0.08978655882061848,"77":0.11971985687274254,"78":0.16086647411697286,"79":0.16081492452131435,"80":0.16192432830937567,"81":0.10608970306572567,"82":0.32779039886884104,"83":0.3271028682824652,"84":0.0802502637963886,"85":0.04684314558407414}},"3":{"bias":-0.025734757610858316,"weights":{"0":-0.19286433182455104,"1":-0.07860000974361459,"2":-0.06077861699149444,"3":0.4027764483992845,"4":0.46857057060307405,"5":0.5430924006077745,"6":0.5568828141119319,"7":0.09762942483032977,"8":-0.40055776118016184,"9":-0.6540428753556966,"10":-0.8239011776266679,"11":-0.5663553016385938,"12":-0.5334223410398887,"13":-0.8458737276390564,"14":-0.8257086419771531,"15":-0.6713473119216239,"16":-0.8327413058555626,"17":0.10537649949327665,"18":0.056533890032138094,"19":0.21686597719947537,"20":0.13248878578211715,"21":0.5727655537729756,"22":0.3336837663907485,"23":0.0558381244943506,"24":0.3106409786109225,"25":0.224136714980694,"26":-0.14307356837458468,"27":0.442345169776942,"28":0.5306013223363244,"29":0.35308132032296574,"30":0.3980283977664785,"31":0.27593353860078484,"32":0.0036062171266777955,"33":0.17163862609972722,"34":0.1479975021208678,"35":-0.08841692225394887,"36":0.42827662549663326,"37":0.4035299179065635,"38":0.609443217696648,"39":0.5076410720619036,"40":0.6069543349648338,"41":0.532435869153724,"42":0.6378086838760557,"43":0.6021730842418367,"44":0.6138446272544051,"45":0.5872564765370328,"46":0.2862912099761261,"47":0.6683190313521812,"48":0.47151874297463753,"49":0.43609145479150013,"50":-0.3909431029155529,"51":-0.45129249185700016,"52":-0.4669096816974364,"53":-0.4608841197200507,"54":-0.5503967917114253,"55":-0.5695971556408168,"56":-0.25846471711149405,"57":-0.38658500468315504,"58":-0.4741186924747378,"59":-0.25597522375456405,"60":-0.32668118536806706,"61":-0.132772266106742,"62":0.18226386082078588,"63":0.3010707192678348,"64":0.09596074499922687,"65":0.23363377053406734,"66":0.44550170305519254,"67":0.2382675202904028,"68":0.4775104612953425,"69":0.3955017456975733,"70":0.39879523667232325,"71":0.5467383646201589,"72":0.28025518715719544,"73":0.19971414158681777,"74":-0.3518703637163076,"75":-0.4417034063118584,"76":0.04416158268471501,"77":-0.2416653544486039,"78":-0.17856532727922506,"79":-0.5084872041776006,"80":-0.46135924060667893,"81":-0.41210396794745985,"82":-0.15259652970532617,"83":-0.44446559785196865,"84":-0.3535347627521018,"85":-0.29822340086827676}},"4":{"bias":-0.08258047207005015,"weights":{"0":-0.6991105412472277,"1":-0.790300804947429,"2":0.3692495340572044,"3":-0.5845154411301081,"4":-0.17882408688182688,"5":-0.5799640717616682,"6":-0.4187453873224188,"7":0.33025694626453794,"8":-0.30696560768411835,"9":-0.14689915838587325,"10":-0.3782591818301214,"11":-0.15224891449875855,"12":-0.1734959001318907,"13":-0.5795689246463211,"14":-0.5824031939556722,"15":-0.39629281123313076,"16":-0.2849036910780685,"17":-0.0367524285213277,"18":-0.15551416820172595,"19":-0.046721809102729384,"20":-0.04954841787017042,"21":0.5134399372917818,"22":0.34342683076897607,"23":0.4705718206385449,"24":0.36805568463811916,"25":0.28576109433563407,"26":-0.011183505446986017,"27":0.4405313236664932,"28":0.41801234896973116,"29":0.2760641556730388,"30":0.18861599947324073,"31":0.24911022290011606,"32":0.2070246975855282,"33":0.07029793580677576,"34":0.17420856576255295,"35":0.029203595611076494,"36":0.07547545349184011,"37":-0.18390602491839572,"38":0.1702513995254004,"39":0.030845643213998873,"40":0.20050493271960657,"41":0.2294532340446436,"42":0.00008183247006060577,"43":0.3094218619071101,"44":0.20773186806764793,"45":0.0560158435458923,"46":0.24429510490876705,"47":0.18470567279963115,"48":0.15576031747483884,"49":0.09508820460746224,"50":-0.6564612844281145,"51":-0.549330159339021,"52":-0.996967522124479,"53":-0.475222115258944,"54":-0.8331116601163782,"55":0.5838295663951326,"56":0.5770231769743362,"57":0.699273696041676,"58":0.5273391239959594,"59":0.3802059347108888,"60":0.4587371288341043,"61":0.4748015819617132,"62":-0.2783785944291207,"63":-0.034885954699120654,"64":-0.22464101155709248,"65":0.020918652580573266,"66":-0.23871450519360413,"67":-0.02565520180829125,"68":-0.21643937191353282,"69":-0.24665308163359495,"70":-0.11786098959794337,"71":-0.2522237648897497,"72":-0.11091402246996213,"73":0.006637044375431182,"74":0.001957826636542283,"75":0.12018909982954532,"76":-0.12545303100796315,"77":-0.1346681431521498,"78":0.0266131688661105,"79":0.12963353995545346,"80":-0.0201987569604968,"81":-0.12331825720328857,"82":-0.14957109137538258,"83":0.005224676578409355,"84":0.1452410501275695,"85":-0.17012478649178278}},"5":{"bias":-0.21396032093942785,"weights":{"0":-0.12006829245510589,"1":-0.3362219905896247,"2":0.0648940553730955,"3":-0.0030200823959120764,"4":0.24653830976249563,"5":0.11705511780490423,"6":0.05415629740768718,"7":0.2831790304465284,"8":0.24416762652317606,"9":0.3678169368285851,"10":0.4102883276156894,"11":0.24385790527314663,"12":0.34021087224589647,"13":0.3014009128437757,"14":0.5127853839344404,"15":0.2653922448074547,"16":0.4666475100855106,"17":-0.048183067500673124,"18":-0.18517022210522174,"19":-0.18565158603850365,"20":-0.2668759131984563,"21":-0.7112010725848825,"22":-0.8836364024286647,"23":-0.2928258067907192,"24":-0.2802385211499692,"25":-0.8157377267511999,"26":-0.08971210110726412,"27":-0.7603828703649113,"28":-0.6411983821701188,"29":-0.1826242843274552,"30":-0.15575289813225424,"31":-0.3389634211413037,"32":-0.32179839654424897,"33":-0.005108280054482049,"34":-0.19745974615971182,"35":-0.12779944005885013,"36":0.027393968356406905,"37":0.3034646811656515,"38":0.15713160241859336,"39":0.08679926948180319,"40":0.06289141275995533,"41":0.125577700040294,"42":-0.07267351803299323,"43":-0.1897708481910064,"44":0.11410327380590163,"45":-0.20105034012214731,"46":-0.07047643078184544,"47":-0.121322019263461,"48":-0.08142358464822036,"49":-0.1525814211343434,"50":0.6999551840326022,"51":0.44875620395756693,"52":1.1332831001518324,"53":0.4743699496880872,"54":1.1045754279606868,"55":-0.08153082013067263,"56":0.1128784164020529,"57":0.14062123169949187,"58":0.07920707351798675,"59":-0.06157775633382476,"60":0.17600901677575398,"61":0.1948727559496999,"62":-0.5555119730336805,"63":-0.5616224103236519,"64":-0.4375830475248901,"65":-0.32126890187921064,"66":0.07688907438170883,"67":-0.39656539758006126,"68":0.5899144404568263,"69":0.2548952230926749,"70":0.39291109722715345,"71":0.4063615948197305,"72":0.5222075516021055,"73":0.4075534949350193,"74":-0.08262008868720135,"75":-0.014658455533806975,"76":-0.14043445041540523,"77":-0.03520325135617124,"78":-0.20955311672824173,"79":0.0947655381830413,"80":-0.26136708321160185,"81":-0.16766945903096447,"82":-0.08145716638446839,"83":-0.18335317017761507,"84":0.11433821998317005,"85":0.023532618794202702}},"6":{"bias":-0.29966930575201,"weights":{"0":1.165652799505993,"1":1.0832419146219296,"2":0.2691992857815334,"3":0.08016383860487636,"4":-0.11094772411893637,"5":-0.08897345296895175,"6":0.014222540143983038,"7":0.07110323599497356,"8":-0.01272092990021554,"9":0.2607474660598086,"10":-0.08344172477461066,"11":-0.13551462606724876,"12":0.10517365994408498,"13":-0.19153038240317435,"14":-0.13812529010209224,"15":0.13969367232642899,"16":-0.03529263601909754,"17":0.29822231246403147,"18":0.2196421291913201,"19":1.1112670116280516,"20":0.8809046425037448,"21":0.7279997203761404,"22":0.7248779359063938,"23":0.35820194001979455,"24":0.2883642311038186,"25":0.7470707621272289,"26":0.9295092654730758,"27":0.7296885804856035,"28":0.8517314377130957,"29":0.1139355784070002,"30":0.27322717055095846,"31":0.5054047610016352,"32":0.20178356755793456,"33":0.15071776232713158,"34":0.2964851340665065,"35":0.00024406710169025566,"36":-0.2696252515542917,"37":-0.3551893455979764,"38":-0.5274661610627897,"39":-0.32248911044466483,"40":-0.2940291598363292,"41":-0.23740119832222417,"42":-0.4101846504706964,"43":-0.3030536483008619,"44":-0.2500009745113334,"45":-0.34773871187155925,"46":-0.44008171804968066,"47":-0.292621742420196,"48":-0.42099701123828986,"49":-0.25748792184956565,"50":0.4979558714044105,"51":0.4202882204116769,"52":0.15732551446118406,"53":0.1283741591922143,"54":0.591208190838779,"55":-0.08743076108258602,"56":0.026300001212312685,"57":0.02372342654409496,"58":-0.045870824143838355,"59":0.07327398031350416,"60":0.215141624357975,"61":-0.11294881148146764,"62":-0.28861662597328747,"63":-0.38021462824141694,"64":-0.3785744310326279,"65":-0.36769472648941415,"66":-0.4611475942360635,"67":-0.44164695846081325,"68":-0.49075143416095013,"69":-0.28436128827669427,"70":-0.1642142769980448,"71":-0.46589494358951233,"72":-0.4068901121703035,"73":-0.1802725468454148,"74":-0.3968572525267244,"75":-0.4501855899093088,"76":-0.17015790337265313,"77":-0.23766576127932518,"78":-0.20065952771168397,"79":-0.449227242572406,"80":-0.2509693828420982,"81":-0.21572103357548214,"82":-0.24736662927770298,"83":-0.44114278510582233,"84":-0.2986969851316108,"85":-0.23237731743650147}},"7":{"bias":-0.18676253273838028,"weights":{"0":0.20747554211801894,"1":0.2284421521468702,"2":0.284861811365721,"3":0.2257268584158857,"4":0.2441197451114212,"5":0.2733093169967849,"6":0.2804446770678789,"7":0.2741301816889534,"8":-0.38556137192533185,"9":-0.41833609501728325,"10":-0.7627363588955826,"11":-0.44549319708239826,"12":-0.2557624503759544,"13":-0.756213738402185,"14":-0.8280143376032528,"15":-0.8913413154598064,"16":-0.7734592587954449,"17":0.5926834271304445,"18":0.6463806964219999,"19":1.4441839208795284,"20":1.4419732240539387,"21":0.7898693400759075,"22":0.7885676162738102,"23":0.41766757241702906,"24":0.4815778956722137,"25":0.6826430014307671,"26":1.1176082057604406,"27":0.5663082645446673,"28":0.7266351152937757,"29":0.13926481773114238,"30":0.4347599348665898,"31":0.3367249637619183,"32":0.22770032960331044,"33":0.2811530981558116,"34":0.13518176435524665,"35":0.047158288076151356,"36":0.01655949993147086,"37":0.05870072018171501,"38":-0.02038728189472375,"39":-0.26162955013668415,"40":-0.17851122573341527,"41":-0.2632265447408334,"42":-0.036460177351788935,"43":-0.06980566321246134,"44":-0.019427960212098902,"45":-0.15944109191115116,"46":-0.08831186784266384,"47":0.010842022877160308,"48":0.02099313581188373,"49":-0.290958264259667,"50":0.5440573770233346,"51":0.49201393447939146,"52":0.0773611220860301,"53":0.038429334848278596,"54":0.9094037545869245,"55":-0.08925179084284271,"56":-0.17353870892187426,"57":-0.07258237324553826,"58":-0.2838428715225022,"59":-0.08833678713630956,"60":-0.3128753164421923,"61":-0.17471544802163388,"62":0.603830703304751,"63":0.7351463069209015,"64":0.593185225843833,"65":0.6812417413140065,"66":0.038881848678977225,"67":0.6043165334234452,"68":-0.07519354134110812,"69":-0.25328637053308567,"70":-0.24922623486702816,"71":-0.23541799808399508,"72":-0.10185401155463548,"73":-0.02882772588738361,"74":-0.5482555097363048,"75":-0.6933123779320866,"76":-0.30210711552966507,"77":-0.31048681779568804,"78":-0.3273652837914563,"79":-0.6085617185948214,"80":-0.5998142943497614,"81":-0.5815531152248534,"82":-0.458527028825885,"83":-0.3295325391524018,"84":-0.3784098443746416,"85":-0.4586674913190262}},"8":{"bias":-0.05612273059112316,"weights":{"0":-0.9555247321465189,"1":-1.0241546694558263,"2":0.501262626101644,"3":-0.6820755172567263,"4":-0.4517406352919712,"5":-0.5310305444747305,"6":-0.7067611890722213,"7":0.2917926419290497,"8":-0.5076924491718205,"9":-0.4418522054735417,"10":-0.8938270381051124,"11":-0.3592787395611269,"12":-0.41203697972658365,"13":-0.894600029957266,"14":-0.8117373222887752,"15":-0.8009328167021624,"16":-0.645849898531782,"17":-0.11356346966534182,"18":-0.061691803666796,"19":-0.5170569888711116,"20":-0.3247395757835182,"21":0.1370467206443687,"22":0.06776186923153064,"23":0.006046543504061692,"24":-0.15822877905892005,"25":-0.007105656683110687,"26":-0.02581892136005341,"27":-0.07727495397717443,"28":-0.007396582424538098,"29":-0.02146388527343316,"30":-0.031707208129175844,"31":0.0884496033521683,"32":0.13976405434465242,"33":0.07996084983947349,"34":-0.18027361549081125,"35":0.1681123467625506,"36":-0.15343582920378418,"37":-0.1510840906628185,"38":-0.46033608754604066,"39":-0.34841734975202976,"40":-0.40429922756465325,"41":-0.3489380237489324,"42":-0.4274922886027694,"43":-0.5340368004932917,"44":-0.30511902638418076,"45":-0.5043039621210519,"46":-0.2556695004820477,"47":-0.28352476796701975,"48":-0.48713064138503387,"49":-0.34699759620144316,"50":0.027387783860896225,"51":0.05724401546755246,"52":0.04824302939918456,"53":0.5828942773769822,"54":0.32910011934112177,"55":0.8714040608070568,"56":0.6640123973093836,"57":0.6657353054719258,"58":0.5611288782482498,"59":0.7382481808535348,"60":0.30995829870597535,"61":0.5460470830308515,"62":0.11017166814900939,"63":0.22087167943016342,"64":0.06527667872455464,"65":0.18614642004122173,"66":0.057521139691118085,"67":0.18012083335830528,"68":-0.1254228538661831,"69":0.011512769439370836,"70":-0.001196236133676036,"71":-0.000292017757309312,"72":0.11065639305157698,"73":0.1725293015768471,"74":0.5126873451528989,"75":0.7694876380971517,"76":0.08718732483802935,"77":0.21374587478063564,"78":0.2543730936415815,"79":0.48002081649276007,"80":0.7855763002454186,"81":0.7204058576982962,"82":0.49634173814083477,"83":0.5322398072294147,"84":0.6659683620631816,"85":0.553333337206919}},"9":{"bias":-0.1389894371030661,"weights":{"0":1.6146982009515092,"1":1.5548775124303458,"2":0.9934890868278884,"3":0.06659589051350409,"4":0.7146535200113823,"5":-0.11146311379041837,"6":0.023513684641940664,"7":0.741517061265385,"8":0.5750795404769855,"9":0.32914654736256355,"10":0.8184959999590384,"11":0.4574555485190682,"12":0.5035641725708273,"13":0.7794020434099099,"14":0.6931602413056068,"15":0.6233025430777045,"16":0.4770061818128361,"17":-0.18389156339252935,"18":-0.02486504393279513,"19":-0.32727494139014013,"20":-0.49686428127823756,"21":0.37553069181755055,"22":0.449987037501408,"23":0.055007537932407924,"24":0.42714955684416367,"25":0.3872125682460009,"26":0.12326482878487295,"27":0.5163084949858051,"28":0.17273520082922125,"29":0.2718974738718668,"30":0.36423191292394674,"31":0.1734104685761509,"32":0.045252159026291955,"33":0.06156550182683342,"34":-0.07968873614647973,"35":0.2205438722924615,"36":0.21611341760945618,"37":-0.41057935563172504,"38":-0.20042434166290427,"39":0.01661446968872541,"40":-0.18433865334263652,"41":0.08762992781121377,"42":-0.16171322097929688,"43":0.028385100468058196,"44":-0.019599293581755734,"45":-0.07005160973891775,"46":-0.02633630380880958,"47":0.10140753315038976,"48":-0.18630081239516177,"49":-0.23891331105569968,"50":-0.2169209603394374,"51":-0.15359329110079367,"52":-0.3849942266841285,"53":-0.2134301727694109,"54":-0.1644496568248501,"55":0.8676086037543003,"56":0.7753999941642704,"57":0.830445958306389,"58":0.7036112266107719,"59":0.5980092097342261,"60":0.18974684706215042,"61":0.22251188467847036,"62":-0.6653960281621595,"63":-0.7329659009860721,"64":-0.7562312919380529,"65":-0.8030735978051948,"66":-0.951808834370163,"67":-0.6173427043021367,"68":-0.747203604160075,"69":-0.5509033547117197,"70":-0.518292475348143,"71":-0.8141766834997903,"72":-0.8640584177944953,"73":-0.3523734311184498,"74":-0.4041338047472879,"75":-0.5163006583631697,"76":0.05557958322501159,"77":-0.08396623787319865,"78":-0.030377167498579168,"79":-0.5707836438986745,"80":-0.4631105897885384,"81":-0.5674520307222527,"82":-0.3989407107645813,"83":-0.5221352420769155,"84":-0.5064146334451015,"85":-0.30735855643972815}},"10":{"bias":-0.11589141377187301,"weights":{"0":-0.8574065362183564,"1":-0.8263264153688479,"2":-0.19080565278942352,"3":0.11377527474012013,"4":-0.27235040324729304,"5":0.055385084618654615,"6":0.05442524913951165,"7":0.13878033815784688,"8":-0.03816960195826628,"9":0.010042296340339377,"10":-0.2949972627678025,"11":-0.06593534853944578,"12":-0.16553873640095543,"13":-0.13484404371270414,"14":-0.30615959027200956,"15":-0.04094789972459868,"16":-0.10722200550223593,"17":0.05316800661855421,"18":0.32717433648251804,"19":0.6285295298946043,"20":0.452418140791187,"21":-0.3798263134648075,"22":-0.4383004972988504,"23":-0.21257648405446622,"24":-0.345044119487568,"25":-0.5140105190951417,"26":-0.8709137461816518,"27":-0.5635927769098751,"28":-0.07093390577391287,"29":0.03318309872263749,"30":-0.0574906440186104,"31":-0.11689107151904533,"32":-0.037734655487105244,"33":0.052297168629686426,"34":-0.13776717452115603,"35":-0.003950063370018285,"36":0.35496402480640743,"37":0.2949925073619379,"38":0.5468995670340564,"39":0.47569486267406436,"40":0.3387434682199855,"41":0.5770651426110813,"42":0.5175712497039209,"43":0.3986384278532539,"44":0.5622996029199405,"45":0.629549553826354,"46":0.4814055113995339,"47":0.3156264810554748,"48":0.22307273713478237,"49":0.5839902395136318,"50":-0.42192678163162317,"51":-0.6221710307864549,"52":-0.20686800299430586,"53":0.11106144100851398,"54":-0.81002174213335,"55":-0.332771159340448,"56":-0.4650645767463081,"57":-0.21676294589992606,"58":-0.47247748165915426,"59":-0.37970471642837517,"60":-0.18368089025648693,"61":0.06948297456316639,"62":-0.40426715496896437,"63":-0.5185784838903188,"64":-0.6122976469833138,"65":-0.5509827836630956,"66":-0.36307268333016357,"67":-0.40632693175137286,"68":-0.15570000234023382,"69":0.05533961235603725,"70":0.1081814264712642,"71":-0.1660369602591827,"72":-0.10420906937944373,"73":-0.1965005132251552,"74":0.6888928210062648,"75":0.6293935979701144,"76":0.3827142240338959,"77":0.31523225950808387,"78":0.19899253424684724,"79":0.7115710080747624,"80":0.5413881769664373,"81":0.365432046261289,"82":0.6681134488891222,"83":0.4329144904217954,"84":0.5542520570335987,"85":0.49409470574004494}},"11":{"bias":-0.2782077226201888,"weights":{"0":-0.05638052739318683,"1":0.11006008206965438,"2":0.309263899716618,"3":-0.06782523271467783,"4":0.0776114565239827,"5":0.07064644399556624,"6":0.012987462550634937,"7":0.10113668834585661,"8":0.4061764293723696,"9":0.3433310036926612,"10":0.5886153693731814,"11":0.43976098264326585,"12":0.2475535771609632,"13":0.40241408691206815,"14":0.3222167380645997,"15":0.5489860061491865,"16":0.37014551053932826,"17":-0.024903308772541658,"18":-0.1300669648912552,"19":-0.44312839256510783,"20":-0.46640868276344777,"21":-0.06392550615448583,"22":-0.1900782293502593,"23":0.06142434430812716,"24":0.004522660035491222,"25":-0.05189542820510016,"26":-0.15373809433429647,"27":0.07087386668463004,"28":-0.14410747243859595,"29":-0.0009928550171192062,"30":0.2073329615249171,"31":0.2583692517780572,"32":0.20281628201373572,"33":0.0409309354089315,"34":-0.07954802987749052,"35":-0.0636471933278471,"36":0.193672741956813,"37":0.17191632505857388,"38":-0.007695058960999371,"39":0.0651522068392226,"40":0.17722782490040104,"41":0.19382090778500832,"42":0.35463584881147625,"43":0.10287526359890885,"44":0.42041223373317343,"45":0.07251405908932447,"46":0.14108696134061027,"47":0.41770148756869274,"48":0.35517387931211253,"49":0.05194302829769755,"50":-0.19781714491953248,"51":-0.2957880533528073,"52":-0.2111411098139729,"53":-0.38853071343383416,"54":-0.36654921692275794,"55":-0.17255767383232296,"56":-0.14161223412757265,"57":0.05798597927343471,"58":0.18523025858037942,"59":0.1421903831187757,"60":-0.03460158156567312,"61":-0.08075162791286675,"62":-0.3389747632068136,"63":-0.403712191202889,"64":-0.18686353981495255,"65":-0.20528271884784707,"66":-0.3460100530053542,"67":-0.3608804402339797,"68":0.1024092470648666,"69":0.054432693976408236,"70":-0.049133166748318774,"71":0.06685046929848103,"72":0.12885987262808324,"73":-0.10155604761230051,"74":-0.41648299484782086,"75":-0.31289538580880605,"76":-0.23699952036607091,"77":-0.22199466613051363,"78":-0.27015544991132034,"79":-0.42532404613761415,"80":-0.16597005952438681,"81":-0.09284519552686135,"82":-0.2331854905446945,"83":-0.15481020941553494,"84":-0.1474953622909706,"85":-0.3693373575369505}},"12":{"bias":-0.15336956767721951,"weights":{"0":-0.5820577555695757,"1":-0.6868767623662347,"2":0.3182708289798188,"3":0.9084630163248968,"4":1.0612936044382857,"5":0.5971071318186479,"6":0.7993196252621801,"7":0.475738290287321,"8":0.13743114174665128,"9":0.09185032323153254,"10":0.13834296830765277,"11":-0.07134923959648432,"12":-0.0841821698892205,"13":0.002797596004873283,"14":0.16585234696525403,"15":0.11125591928663241,"16":0.1167343969935293,"17":-0.31508646422427794,"18":-0.18750426113253393,"19":-0.6825547093365394,"20":-0.6067213675161736,"21":-0.6084222642055629,"22":-0.7745073813717246,"23":-0.44523492773161916,"24":-0.27245175794262394,"25":-0.6369610558882988,"26":-0.9294455789762983,"27":-0.6781815203909148,"28":-0.7093451075463566,"29":-0.2878112815856708,"30":-0.21233806991982515,"31":-0.050396241014261926,"32":-0.133846620196115,"33":-0.01490769260375461,"34":-0.09352543890404288,"35":-0.1964735312256418,"36":0.6884826750153845,"37":-0.0745512557204382,"38":0.9261858867822067,"39":0.9688144119611857,"40":0.9591052062999683,"41":0.7968152416739424,"42":0.949900097390813,"43":0.7686618193172083,"44":0.9865760114828098,"45":0.9340660236399031,"46":0.8672209833386622,"47":0.9819076005567166,"48":0.7068802511271393,"49":0.8558945493316398,"50":-0.5590036910499603,"51":-0.34886029760830456,"52":-0.09865106504314736,"53":-0.4990770006259939,"54":-0.7588897913260791,"55":-0.31004691171050014,"56":-0.14743932879370886,"57":-0.0547702181623081,"58":-0.0636619096389711,"59":-0.006837235425045453,"60":-0.1046770475381577,"61":-0.2698823965549197,"62":0.005488343733550021,"63":0.0941026030629019,"64":0.27220659595741553,"65":0.3325478111963972,"66":-0.6129411348713043,"67":0.20722585807287258,"68":-0.7873067190538618,"69":-0.5973175101274435,"70":-0.6125902839683567,"71":-0.9007304562580528,"72":-0.8915115916383944,"73":-0.8439196346864966,"74":-0.2991529257456276,"75":-0.26060463107221615,"76":-0.1347559533264109,"77":0.15551346621030035,"78":-0.05449912933154355,"79":-0.03596094510720543,"80":-0.18847505507138784,"81":-0.23375266718012594,"82":-0.13584265379213564,"83":-0.017589557308074724,"84":-0.09356456259762791,"85":0.03554481827771856}},"13":{"bias":-0.0284322277008278,"weights":{"0":-0.5530842065131631,"1":-0.41289411019191496,"2":0.20608538412004715,"3":-0.4058677734357882,"4":0.03126494773343704,"5":-0.25790848336390554,"6":-0.4200010975097531,"7":0.3507955455996597,"8":0.09590935902231353,"9":-0.14009544105742813,"10":-0.05997810271097805,"11":-0.06430278675362662,"12":0.1353088174815026,"13":0.03629803653311307,"14":-0.17233674160802692,"15":0.1453291885103547,"16":0.1601460644532891,"17":-0.47769103500923626,"18":-0.29248944452092235,"19":-1.0867710103279529,"20":-1.0957521666761052,"21":-0.3232480389514652,"22":-0.4126094634780601,"23":-0.32846858053538447,"24":-0.18425318124341322,"25":-0.3308835337841331,"26":-0.2683596646256984,"27":-0.16784576089494355,"28":-0.4748721472255781,"29":-0.049528894718292034,"30":-0.18638877299727832,"31":-0.23575415110450745,"32":-0.010819133157837411,"33":0.07743459797652685,"34":0.013369614878749912,"35":0.1639295814606335,"36":0.19821670288794282,"37":-0.0685326747141636,"38":0.1277296663137463,"39":-0.058451733747360936,"40":-0.09270215482599246,"41":0.1006551519159678,"42":-0.06308596475480897,"43":-0.10582750409982047,"44":-0.05225340847764237,"45":0.057060338641815415,"46":-0.0034185016519940044,"47":0.18179181097749078,"48":0.17743428474059902,"49":-0.057774282089811314,"50":0.2563082675762093,"51":0.055866631460316944,"52":0.6038825065760294,"53":0.28666571493216064,"54":0.26760745889242243,"55":0.46347269338667046,"56":0.5320198996689385,"57":0.625424280110246,"58":0.5427890077005205,"59":0.5748086017656393,"60":0.2717174609825657,"61":0.35862690602116953,"62":0.2859838625011371,"63":0.02295037114978028,"64":0.006195942618148332,"65":0.2858024762319058,"66":-0.378517686388496,"67":0.24787050721781265,"68":-0.6115632968815236,"69":-0.2030091804984429,"70":-0.4769727190320478,"71":-0.6371371879109621,"72":-0.6593957746993915,"73":-0.48683206085528596,"74":0.2769489119836436,"75":0.105405140878871,"76":0.17660122035764292,"77":0.21372724090586417,"78":0.2913962462461342,"79":0.11975178679751602,"80":0.3634923992386292,"81":0.440573158491024,"82":0.4834102791037726,"83":0.2898102790285023,"84":0.4125406687281082,"85":0.5041842417613535}},"14":{"bias":-0.35152420267077944,"weights":{"0":-0.6074365909427701,"1":-0.6701693288428884,"2":0.3750606048451826,"3":0.9636871538274006,"4":0.8923397866629148,"5":0.7889211046726037,"6":0.9049382046168238,"7":0.6058459687749204,"8":-0.4128252818399144,"9":-0.2172191287337395,"10":-0.38689973220765056,"11":-0.23627849157727612,"12":-0.36520099460978656,"13":-0.627910139486301,"14":-0.4764754862592494,"15":-0.2863993569548005,"16":-0.5223226793021413,"17":-0.05110287071442688,"18":0.2009455929282564,"19":0.21539998244878542,"20":-0.2724473163556161,"21":0.21215493950589612,"22":0.19354013478043336,"23":0.0645631429104576,"24":-0.11363953590984699,"25":-0.03979479310924408,"26":-0.2568169887830827,"27":-0.14688741720683451,"28":-0.14896248722253644,"29":0.23831721804774703,"30":0.29012035655999846,"31":-0.023972767278892033,"32":-0.09793767430839342,"33":-0.005368640710581769,"34":0.16866651474112934,"35":0.060175046150445666,"36":0.21212514225309753,"37":0.14989294515611504,"38":0.0985854497172051,"39":0.33916848504391617,"40":0.4019379635736627,"41":0.1948490763799035,"42":0.21750298771054435,"43":0.4070217946373456,"44":0.21276948419677977,"45":0.21054491049466467,"46":0.4110630436125183,"47":0.42843880815992874,"48":0.2879104509818671,"49":0.3622782954653473,"50":-0.33015595450958296,"51":-0.4370055653106472,"52":-0.2856237153029236,"53":-0.01731615300158244,"54":-0.3376207453174254,"55":-0.24405911975645686,"56":-0.03585929823637439,"57":-0.2652646451690156,"58":-0.1339476826182982,"59":-0.16679834652738806,"60":-0.39508110588965384,"61":-0.07253267455615073,"62":0.056912340943554664,"63":0.05180771082822761,"64":0.2426032875759252,"65":0.06936989267685231,"66":-0.10790822410700603,"67":-0.012652261665503001,"68":-0.5278145419335262,"69":-0.17408595475058955,"70":-0.2832005832345771,"71":-0.45697299520709594,"72":-0.5215246233692125,"73":-0.46657708126585806,"74":0.32020826189113066,"75":0.3378045955593096,"76":0.04932270700280329,"77":0.16424912338759207,"78":0.2588049659516959,"79":-0.03185533065374728,"80":0.3094554642427482,"81":-0.07761108069368762,"82":0.10262366464404891,"83":-0.03944889474865849,"84":-0.07471269024476622,"85":0.2308758649908853}},"15":{"bias":0.0014126077782541193,"weights":{"0":1.0333176819705399,"1":0.9790022444108922,"2":-0.6665936552145022,"3":0.3508336077097862,"4":-0.06618165702280615,"5":0.3276940921680062,"6":0.13668906990287416,"7":-0.5499870138171038,"8":0.14576783523916495,"9":0.3162843039540825,"10":0.22140314481255288,"11":0.2862513180359304,"12":0.10954439049795064,"13":0.5326457067178451,"14":0.2855864107556699,"15":0.19414745261397914,"16":0.5215041062064995,"17":-0.187331360490169,"18":-0.10868944248347906,"19":-1.0443726079737017,"20":-1.0130980461583137,"21":0.8732820254700107,"22":0.9051182577313487,"23":0.39036364977266524,"24":0.6208404510487792,"25":0.9707815755669316,"26":0.5277235394412492,"27":0.7177434722629834,"28":1.189079897722067,"29":0.11547793182441679,"30":0.40854615531084226,"31":0.44802798333720817,"32":0.3618439901504356,"33":0.06426514619457582,"34":0.11735630860162569,"35":0.2490759892358614,"36":-0.1489333266395962,"37":0.20047534205125436,"38":-0.05985591571788643,"39":0.1524053887643986,"40":0.3234769721003935,"41":0.08118008754251381,"42":0.08284761110229727,"43":-0.00445840720891712,"44":0.37704039476880036,"45":0.04893621366661812,"46":0.27061235430236125,"47":0.258684660306596,"48":0.03892193668098121,"49":-0.005554288288255496,"50":-0.2828248884269366,"51":-0.4821349989321835,"52":-1.038908218691073,"53":-0.5149968544912342,"54":-0.633418827503287,"55":-1.0911092623989822,"56":-1.1047421959185428,"57":-0.8995460766504709,"58":-0.9315428004170473,"59":-1.0165917725835825,"60":-0.29269024389158077,"61":-0.45697518786061475,"62":0.12230228559979371,"63":0.1590334280478857,"64":0.1161652144899371,"65":0.05841472942954382,"66":0.04969452965580217,"67":-0.10018562571649027,"68":0.35002266075912886,"69":-0.03354200616148533,"70":-0.007677261890397625,"71":0.38905732990986186,"72":0.3474208842538298,"73":-0.0013695912672028584,"74":-0.34841513301427574,"75":-0.4772998494253265,"76":-0.023710336448234358,"77":-0.1164153847967973,"78":-0.08021899104956741,"79":-0.3728889901427228,"80":-0.49945318890550233,"81":-0.19600804344491182,"82":-0.313213015524489,"83":-0.3438516322381286,"84":-0.37287625697695764,"85":-0.29477925127245747}},"16":{"bias":-0.23217874532237928,"weights":{"0":-0.16216551066047988,"1":-0.3152880491135596,"2":-0.7040256080846627,"3":0.1905315617388404,"4":-0.4805727672955713,"5":0.3332386913631351,"6":0.10797107366761564,"7":-0.3058153525793406,"8":-0.12057796462223032,"9":0.033068428684770904,"10":-0.022226937232469268,"11":0.027666259184624384,"12":-0.10835778389158271,"13":-0.035759853484841196,"14":-0.1815145980797257,"15":-0.1948983360234567,"16":-0.05135437654013067,"17":0.0028418166195097747,"18":-0.26285297955528314,"19":-0.3931057604127573,"20":-0.2256998660896383,"21":-0.1400660550284009,"22":-0.18139399802106768,"23":-0.15186421949018822,"24":-0.0476817360011044,"25":-0.09767587327389761,"26":-0.4938148064516454,"27":-0.056270386886145246,"28":0.3311399143870358,"29":-0.08190841248050594,"30":-0.06950109350063349,"31":-0.11315928995383863,"32":-0.02817560215998418,"33":0.1526188219216272,"34":-0.07175307843952801,"35":0.0022490969270518237,"36":0.39314206044280114,"37":0.7203915720656798,"38":0.7781427058703111,"39":0.7934559695352732,"40":0.9445925172995504,"41":0.8956788908466059,"42":0.8264795142863773,"43":0.8576749511423035,"44":0.8425329063122919,"45":0.8129870407342644,"46":0.8083814032312151,"47":1.0067029171260873,"48":0.9062622784251027,"49":0.7846349616919495,"50":-0.594813992539785,"51":-0.5150915075783805,"52":-0.5228199373459265,"53":-0.55460588641484,"54":-0.9030502836906351,"55":-0.8175612005557311,"56":-0.9233409332351907,"57":-0.9088709319953275,"58":-0.6822199510925164,"59":-0.6045654041943583,"60":-0.37815500111113765,"61":-0.3066621882236721,"62":-0.36747550161830184,"63":-0.38126731837025624,"64":-0.45030441570216173,"65":-0.46991422834550006,"66":0.6010046399124691,"67":-0.3629636093114373,"68":1.277305705686044,"69":0.8240197206002845,"70":0.6334550070832482,"71":1.2211009703089335,"72":1.0985910494130753,"73":0.46639008091930356,"74":-0.3123486449828377,"75":-0.4249057333170205,"76":0.055915499769767674,"77":-0.07026744326002798,"78":-0.06322825775278776,"79":-0.4862788088043219,"80":-0.4334841571947479,"81":-0.2229588733513522,"82":-0.23383773874643957,"83":-0.23945855172385108,"84":-0.17373933659434676,"85":-0.22864333303805684}},"17":{"bias":-0.10613124394768673,"weights":{"0":-0.5630149594359839,"1":-0.6256935240003592,"2":0.4844247507654742,"3":-0.384088707418406,"4":0.20132383503791784,"5":-0.20775141590744942,"6":-0.2782379325808938,"7":0.5063411419150515,"8":-0.05328603246515393,"9":-0.09983806618295103,"10":-0.15520946790149254,"11":-0.08351009752181494,"12":-0.18104065812853326,"13":-0.001535552872685875,"14":-0.2125507596457536,"15":-0.07498018376111087,"16":-0.055487142959486736,"17":0.25420530644573114,"18":0.4627470210270321,"19":1.1553537151762763,"20":0.7534470911691754,"21":-0.45727967810536485,"22":-0.38986918407146653,"23":-0.09535328737955448,"24":-0.030690946657850653,"25":-0.45392927917029596,"26":-0.6264145801625032,"27":-0.2280180538725053,"28":-0.5753150021254912,"29":0.108831078849691,"30":-0.12292696138115244,"31":-0.21346611979530025,"32":-0.20231164000644658,"33":-0.0018622829379818903,"34":0.0885695282347948,"35":-0.0685018595485511,"36":0.09494798551626937,"37":-0.060575470475314,"38":0.17559895983421936,"39":0.5240255109471144,"40":0.3890460519785541,"41":0.43650582688032935,"42":0.16262207261910022,"43":0.1683991476447028,"44":0.32468553549143353,"45":0.4248075608825497,"46":0.13740718141069264,"47":0.4958156299329825,"48":0.1635357339624899,"49":0.2846633434293792,"50":-0.6167281625514509,"51":-0.4528092029231442,"52":-0.5169887387111664,"53":-0.6984962220030273,"54":-0.8840564472837407,"55":0.7314082835018347,"56":0.5870052384284065,"57":0.6630506940210117,"58":0.5810278169425291,"59":0.6434775943925067,"60":0.14552702361600967,"61":0.14858548906926505,"62":0.29290979054986604,"63":0.526468614992856,"64":0.32039073022471654,"65":0.43750093755858876,"66":-0.09725213306272787,"67":0.45302939407518256,"68":-0.36056616326844104,"69":-0.23895958731619346,"70":-0.18813528255471598,"71":-0.38945159287569703,"72":-0.502748816246919,"73":-0.5164158646638376,"74":-0.30242922371436237,"75":-0.4930570212152682,"76":-0.29119801833658066,"77":-0.15010729675908308,"78":-0.00365046345581683,"79":-0.18041290619685357,"80":-0.18559005534028925,"81":-0.27622108048345845,"82":-0.16714240610434866,"83":-0.4499407810791165,"84":-0.23427419691989623,"85":-0.29627107294015936}},"18":{"bias":-0.08263745587997433,"weights":{"0":-0.1220205197251706,"1":-0.2572852971198025,"2":-0.6419674817715026,"3":0.20784612900128968,"4":-0.5192189088230156,"5":0.35219860667107056,"6":0.11721745974051195,"7":-0.31845999333247194,"8":0.023151964487358765,"9":-0.14361514549885743,"10":-0.18843255848981857,"11":-0.012598581439694638,"12":-0.14061719290575228,"13":-0.012275889393059411,"14":-0.03674094825805626,"15":-0.30744446847096096,"16":-0.09616416392263114,"17":-0.23611662323117436,"18":0.010035060336688809,"19":-0.4072914406033691,"20":-0.44495491753161126,"21":-0.7691682516234002,"22":-0.74298672526637,"23":-0.4759566984398233,"24":-0.4234341000454241,"25":-0.6043242131383041,"26":-0.7702862989454782,"27":-0.6204117732136364,"28":-0.3633718662116955,"29":-0.2705973164752975,"30":-0.3790580173873561,"31":-0.08980138354979812,"32":-0.09274244720821347,"33":-0.02069670327857873,"34":-0.09431822763667809,"35":-0.20629872164492077,"36":0.8115133502287041,"37":0.1633378543804429,"38":0.8881373541276606,"39":0.7676113427500956,"40":0.8310369053772669,"41":0.8555072740469771,"42":0.8280075093824346,"43":0.8729430665054174,"44":0.7766544364362731,"45":0.8288968669168747,"46":0.8533988348656707,"47":0.7968709508141143,"48":0.6623631856662016,"49":0.7970422722268142,"50":-0.2156108483213403,"51":-0.17896369207147925,"52":0.5728008085769388,"53":0.37951954641197183,"54":-0.36682422018123345,"55":-0.5528138681727452,"56":-0.7802172457357162,"57":-0.6342025135433955,"58":-0.49021146310203956,"59":-0.7410000510909543,"60":-0.4035303748981509,"61":-0.16689636676995384,"62":0.49266963154004584,"63":0.501700879986203,"64":0.18003586157934467,"65":0.3886313517243904,"66":-0.3362710385948301,"67":0.11117288327661178,"68":-0.8317903086489397,"69":-0.47292216420081806,"70":-0.3254041179203472,"71":-0.5780370265353345,"72":-0.6140213126690118,"73":-0.7545660102519482,"74":0.4579594505151441,"75":0.3238216042987599,"76":0.003803341268464966,"77":0.3067308795463633,"78":0.12395138381902664,"79":0.47831736806968966,"80":0.3174926276514351,"81":0.22090180320282088,"82":0.2823062717574101,"83":0.33039219665882363,"84":0.26205392575051206,"85":0.4406644771484648}},"19":{"bias":0.09640368339412576,"weights":{"0":0.46446639443137605,"1":0.28874832556842,"2":-0.1174415082819338,"3":-0.6378146275585613,"4":-0.5915621275601355,"5":-0.5540863567999358,"6":-0.6699638971800653,"7":0.12752852019638028,"8":0.15360780711295788,"9":-0.009412185383007404,"10":0.3586905687275471,"11":0.1455715687272624,"12":0.14665089494086567,"13":0.21642351376188698,"14":0.13664115621038475,"15":0.25333809372361804,"16":0.44328272652592654,"17":0.28118424402477654,"18":0.09345681398794334,"19":0.3027192101639955,"20":0.5078832328555334,"21":-0.5575532068842738,"22":-0.7882979341799093,"23":-0.3002091093528212,"24":-0.3523805829569509,"25":-0.4880298169213848,"26":-0.5445379464246469,"27":-0.562818775391055,"28":-0.5016178546204993,"29":-0.10491579729542816,"30":-0.2984999167800373,"31":-0.3098541492242512,"32":-0.2636664408693093,"33":0.05169297244325627,"34":-0.14226904317597605,"35":-0.16330414851476285,"36":0.06177751097164093,"37":0.05778335927686826,"38":-0.0626515743294736,"39":0.06318752744395771,"40":0.19504508495833442,"41":-0.037154616428209185,"42":-0.11419697369947822,"43":0.19644487941709463,"44":0.19314588390454301,"45":-0.030629478311727854,"46":-0.10817790171469636,"47":0.31144588684426133,"48":-0.10648902861709966,"49":0.08462944349722878,"50":-0.09357646199132659,"51":0.048765561429954855,"52":0.4027199696725088,"53":0.37092079893297447,"54":0.11896724158591189,"55":0.4085385620436151,"56":0.396818231152684,"57":0.31189131676041015,"58":0.4273970564146338,"59":0.4714939497179636,"60":0.388481101506339,"61":0.30193478714374056,"62":-1.0869194236085562,"63":-0.8671595380081261,"64":-1.031296102792374,"65":-1.0065278892542673,"66":-0.8248392226049338,"67":-0.7779368823618077,"68":-0.31672274946519796,"69":-0.20025985894134501,"70":-0.2705225921258073,"71":-0.32892089351395803,"72":-0.22178035149554876,"73":-0.22846443475989853,"74":0.5924165945447089,"75":0.6265955131442777,"76":0.11246009371669585,"77":0.3517590808118762,"78":0.2340513282466108,"79":0.4925107713690108,"80":0.639222719993775,"81":0.6452171070774468,"82":0.6169422412847484,"83":0.5223670267983215,"84":0.4075141281950297,"85":0.32779882097894925}},"20":{"bias":-0.27136601690053647,"weights":{"0":0.9331798922350296,"1":0.8574352905360678,"2":0.07075737826033424,"3":0.17823663928141656,"4":0.010360553178967394,"5":0.17551360815442538,"6":0.2955030485532595,"7":0.14147960115530533,"8":-0.18187065968359886,"9":-0.314415699210302,"10":-0.3610090254230015,"11":-0.3076566015034985,"12":-0.41262262362437574,"13":-0.4048216223943121,"14":-0.4326300388466054,"15":-0.39116168271477,"16":-0.5038263365635715,"17":-0.005502957690482938,"18":0.22790036840301667,"19":0.17372750744329085,"20":0.3695809732768052,"21":0.17987760702865918,"22":0.3593268725396804,"23":0.2488590914679602,"24":0.25426590629468676,"25":0.3597090621601926,"26":0.6534330298955089,"27":0.3336410672363814,"28":0.23670868356335756,"29":0.03277258250393345,"30":0.0031510455093714477,"31":0.2718722915804171,"32":0.0928198812983873,"33":0.16298651543586007,"34":-0.06705563590527805,"35":0.18111518734661644,"36":-0.05467787631889909,"37":-0.2210436296841451,"38":-0.4207162723069727,"39":-0.07103162108642276,"40":-0.1813749759593218,"41":-0.2915756113414735,"42":-0.24311393957849117,"43":-0.36622478938449105,"44":-0.16772208563793994,"45":-0.06524251138751287,"46":-0.29826848908876874,"47":-0.1708198796244898,"48":-0.33313154970741865,"49":-0.38660206853843426,"50":0.26099740000783916,"51":0.5440922582271778,"52":0.310267665946665,"53":0.5159269535386362,"54":0.6664930045620675,"55":-0.060471165378203184,"56":0.05585839524016729,"57":0.013178804547508485,"58":0.0958492663774036,"59":-0.14983363020092055,"60":-0.009751441943402854,"61":0.08111187683585787,"62":-0.09643546876692569,"63":-0.2029788844476755,"64":-0.3567747261302986,"65":-0.11924849597214306,"66":-0.02290950732058846,"67":-0.3140231424966211,"68":0.017305477747120362,"69":0.051963811129246446,"70":0.13753545417268373,"71":0.03732498568023496,"72":-0.10298381475743976,"73":0.0490075475691782,"74":0.03387973099081849,"75":0.20098444883415123,"76":0.12366258452321043,"77":0.24621705032657654,"78":0.12787804952783205,"79":0.18726765618430674,"80":0.03382921182153863,"81":0.3062117780887421,"82":0.05674057378418125,"83":0.2121627101768675,"84":0.25990451675375786,"85":0.17621130058389983}},"21":{"bias":-0.22977720192393422,"weights":{"0":-0.7393282971225308,"1":-0.676374887647505,"2":-0.5219994917583732,"3":0.036232831677929137,"4":-0.3368531098019115,"5":-0.11178809482730367,"6":-0.0799541462447975,"7":-0.47486821454638534,"8":-0.21784255454069734,"9":-0.3029186856602462,"10":-0.5419892337878843,"11":-0.0899420707162135,"12":-0.055121538246796074,"13":-0.4348221578025292,"14":-0.4430242391782465,"15":-0.4621095927205243,"16":-0.27782500263443655,"17":0.29042261176750267,"18":0.09366641931551604,"19":0.7746595813733944,"20":0.665256801009352,"21":-0.38894492314402235,"22":-0.2910597392062432,"23":-0.2125274323753235,"24":-0.10590750009160076,"25":-0.5114636365038352,"26":-0.6632859361563375,"27":-0.3072065710195204,"28":0.032628372948404476,"29":-0.08372027095251518,"30":-0.11119580196318873,"31":-0.31832391790740633,"32":-0.21631652463007617,"33":-0.2263041972792438,"34":-0.07224742564590438,"35":0.060875221119957745,"36":0.6930844647249369,"37":0.1931394028851828,"38":0.757861634097164,"39":0.7938946913793717,"40":0.5138610459868634,"41":0.7489775400308895,"42":0.7411231583268152,"43":0.6131670953511723,"44":0.647032044171121,"45":0.5422611782077018,"46":0.7084829016378996,"47":0.5906490494541574,"48":0.7463831771965771,"49":0.6159167097994521,"50":-0.2969849445538788,"51":-0.06925205963874215,"52":0.08693484050653874,"53":0.05431141394796631,"54":-0.23473568091027713,"55":-0.6612061528032096,"56":-0.35424822214679513,"57":-0.60022910779196,"58":-0.29641331298302515,"59":-0.5864028760852518,"60":0.010728288300790867,"61":-0.22287550105096482,"62":-0.15334856835580035,"63":-0.3140473896097705,"64":-0.03505080709076501,"65":-0.27643137408334467,"66":-0.39196254440004447,"67":-0.2590472594721213,"68":-0.47277349923721007,"69":-0.35336351492130125,"70":-0.412388252254676,"71":-0.5823714298611886,"72":-0.39173073718289897,"73":-0.5737101966144429,"74":0.3472212792879188,"75":0.5210709528307002,"76":0.16998826821483398,"77":0.35777971593976676,"78":0.10768248042456256,"79":0.393264874055732,"80":0.331660951002984,"81":0.46734246534305257,"82":0.36891364396356874,"83":0.4648037463837042,"84":0.4398249811839099,"85":0.5719340740999002}},"22":{"bias":-0.21954223954807972,"weights":{"0":0.3201279889729581,"1":-0.018923043653105584,"2":-0.1665156351047846,"3":0.8671096112632909,"4":0.9659176528262776,"5":1.0449529731109517,"6":1.0879886154315683,"7":0.14907304726940063,"8":0.03100920845956782,"9":0.12647323938602287,"10":0.3989947546071541,"11":0.12479175682917305,"12":0.18929728704280388,"13":0.46548343458468705,"14":0.23843215710755347,"15":0.19893536069235562,"16":0.38604475271889144,"17":-0.3417031958565372,"18":-0.19314643538341944,"19":-0.8175996458742362,"20":-0.8634585028218182,"21":-0.0810204377332435,"22":-0.12500696687521312,"23":0.16329582400565607,"24":-0.047248624845343194,"25":0.19769327647029725,"26":-0.0030515986034979274,"27":0.001302693924078954,"28":0.05593204548144046,"29":0.057010478084828814,"30":0.03894526398144274,"31":0.17623543098576153,"32":-0.10541423918039286,"33":-0.119036055210809,"34":0.12843294042200062,"35":-0.07642087519578367,"36":-0.22174087651792765,"37":-0.21920362798812607,"38":-0.2684211520196592,"39":-0.20003466652039784,"40":-0.12640685511628671,"41":-0.053685951376660754,"42":-0.22258817988822768,"43":-0.1662877743215006,"44":-0.1389155210155657,"45":-0.2221248767999433,"46":-0.20103651978888223,"47":-0.30143018011632633,"48":-0.3343994675267231,"49":-0.04764982254658903,"50":-0.3318733564804124,"51":-0.12267008215951015,"52":-0.4220142504926436,"53":0.3747448721747384,"54":-0.31009808722840554,"55":-0.5770778550406057,"56":-0.5525481571260153,"57":-0.6323997910652284,"58":-0.4072125957946996,"59":-0.5956302530913355,"60":-0.5773469236403285,"61":-0.5440207467790577,"62":0.26408308728547064,"63":0.15788172604859732,"64":0.3944398369415179,"65":0.10944732116078217,"66":-0.1237772037579643,"67":0.18389021783270834,"68":-0.2425196686277038,"69":-0.18841130175585816,"70":-0.019646134924797623,"71":-0.4220588507856106,"72":-0.39040793423358056,"73":-0.008390302928714326,"74":0.5041656807199083,"75":0.3548059869005704,"76":0.18603039242352543,"77":0.29571129450206085,"78":0.06475396922967497,"79":0.34899686598231966,"80":0.3326440665252171,"81":0.3350265579955328,"82":0.438335634382728,"83":0.1606647210729572,"84":0.2674086699311077,"85":0.22154835681334722}},"23":{"bias":-0.1624767588529551,"weights":{"0":0.3803484319947559,"1":0.6847794558606345,"2":-0.28367411877455745,"3":-0.21538549786034708,"4":-0.39706513660753434,"5":-0.20120906592371782,"6":-0.32033933881728793,"7":-0.06993758718969882,"8":0.29165664049976653,"9":0.6169133119072887,"10":0.5864041394747387,"11":0.42870551205338137,"12":0.5455605936528514,"13":0.5934166680349127,"14":0.5420233711621143,"15":0.7748704093603629,"16":0.745090793127589,"17":-0.016139614102967756,"18":0.10846935404000688,"19":-0.1459555107589365,"20":0.08257878702558084,"21":0.10493157857929565,"22":0.03580053410628707,"23":0.040311586809827854,"24":0.06721210551391676,"25":-0.1325684622442597,"26":0.1844181323626399,"27":0.1569765712105465,"28":0.31672952409472654,"29":-0.08960846733472493,"30":0.08345907194559088,"31":0.1718562537260652,"32":0.22115574157196358,"33":-0.06439406088675653,"34":-0.12210837529651046,"35":0.06716276665446277,"36":-0.2897952979488304,"37":-0.13182105563177157,"38":-0.25300443935163947,"39":-0.2150482868438241,"40":-0.0707189083857833,"41":-0.22617034939117364,"42":-0.11970564524261776,"43":-0.27890964566852583,"44":-0.00010057822128604501,"45":0.033102400887581075,"46":0.013311760146068455,"47":-0.023304519577639692,"48":-0.19193724566175685,"49":-0.13015284641027075,"50":0.20619868330836708,"51":-0.058498966554922795,"52":-0.04987499990529677,"53":0.1135817965126435,"54":-0.058591894709393466,"55":-0.015639340201082503,"56":-0.18833844144445921,"57":-0.22056089738915932,"58":-0.182156312246723,"59":-0.1817633459607569,"60":0.2028794797978504,"61":0.060175656056880425,"62":-0.49260538448275165,"63":-0.7410257031048103,"64":-0.7748089669107131,"65":-0.693358222327314,"66":-0.3508861584345907,"67":-0.6305851666722108,"68":0.2977294674689214,"69":0.14497665925525227,"70":0.28391446208101506,"71":0.3303795807096363,"72":0.15950217755370266,"73":0.27653682626532883,"74":0.02179773773562261,"75":-0.1544447010254431,"76":0.11689841616397019,"77":-0.1485327539182741,"78":-0.1704416023543062,"79":-0.26195846606544,"80":0.012870133186719422,"81":0.03949934230434753,"82":-0.2489561486388086,"83":-0.19934911276612036,"84":-0.15660789654621826,"85":0.009360254374643814}},"24":{"bias":-0.028366365776316498,"weights":{"0":-0.8164439022071036,"1":-0.9806733527880894,"2":0.04254394118697645,"3":-0.7471719703983417,"4":-0.6640898820330267,"5":-0.6995921238158871,"6":-0.6736467620084823,"7":0.08763651458217185,"8":-0.3741416116491143,"9":-0.33082691366265343,"10":-0.5243294891019217,"11":-0.4082244156679971,"12":-0.032785556012288546,"13":-0.4729827730840928,"14":-0.3845969191021526,"15":-0.5311269826265801,"16":-0.3592550883635972,"17":-0.34247624121014536,"18":-0.3378474647283127,"19":-0.7617985737267998,"20":-0.6662640179789179,"21":0.8392276137190552,"22":0.7727638591165101,"23":0.6091118201919362,"24":0.49269812632109566,"25":0.716302016738892,"26":0.7978677336391334,"27":0.9675127777199638,"28":0.681491537236766,"29":0.38225786284510954,"30":0.5025986700594919,"31":0.28262107949663545,"32":0.1853692464398185,"33":0.03155146932987962,"34":0.10438548481524272,"35":0.19249138145737113,"36":-0.5568218774926647,"37":-0.062212126388741344,"38":-0.8067617880802247,"39":-0.4650567953687718,"40":-0.680768740416556,"41":-0.525685256924496,"42":-0.5971678195592458,"43":-0.6533081179436153,"44":-0.6633824405033492,"45":-0.6122316434819183,"46":-0.3493470564379448,"47":-0.4640044138354172,"48":-0.5441949439536268,"49":-0.4706690752148974,"50":-0.20907809181727455,"51":-0.12170687489549516,"52":-0.5729704294163256,"53":-0.07989321913562275,"54":0.10117972612018594,"55":0.05158972754780376,"56":0.2480875894799015,"57":0.13766756917037423,"58":0.291130984663351,"59":-0.09457109771380788,"60":0.057406294666106326,"61":0.34277984962879704,"62":0.5750060383763371,"63":0.39556870526660287,"64":0.3386911633821592,"65":0.581350735856362,"66":0.32203619471438416,"67":0.5049623540182191,"68":0.2157696770618376,"69":0.28948615989856785,"70":0.2625225452490982,"71":0.16775942725272575,"72":0.3939489600442792,"73":0.49612072401279667,"74":0.3141063099767013,"75":0.2456729161505369,"76":0.05891969162738662,"77":0.2598551874950979,"78":0.14608522160637813,"79":0.1911304555288818,"80":0.4014496424720062,"81":0.13159234480429619,"82":0.29270180437765847,"83":0.4667400931612464,"84":0.3743643035341146,"85":0.4474416563429827}},"25":{"bias":-0.147363246407395,"weights":{"0":0.7231045700712673,"1":0.5132691572334193,"2":-0.0035897691528599786,"3":0.14567882606454638,"4":0.15390319082052,"5":0.3326248618861836,"6":0.11830565995423496,"7":0.18134910190438602,"8":-0.1547277166073225,"9":-0.23807417008406992,"10":-0.3128669218970042,"11":-0.03894113068987818,"12":-0.15182476450644955,"13":0.08232581342863962,"14":-0.18561847369066037,"15":-0.0729094647379639,"16":0.05759294732551662,"17":0.07270164592782424,"18":0.03060301627338484,"19":0.4260204307655348,"20":0.3961713076099461,"21":0.04518801867265409,"22":0.02900745357561533,"23":-0.0025849272439327146,"24":0.03572910800735057,"25":0.22419909163456378,"26":-0.13731872109580906,"27":0.24676837549531996,"28":0.3424125500734301,"29":0.23182015810604867,"30":-0.05416123701616138,"31":0.32125683045254233,"32":0.08963805738701289,"33":0.070891344968125,"34":0.08869824775914224,"35":0.2224634952949541,"36":0.16735427374771314,"37":0.5150045730368696,"38":0.3182274880134805,"39":0.5572517124467731,"40":0.4837353725386097,"41":0.6124060512450235,"42":0.5420009440897305,"43":0.3094696545331886,"44":0.5644370602249537,"45":0.35550688433328614,"46":0.45656751226321957,"47":0.5306801588708328,"48":0.29322686350202,"49":0.4221858688811589,"50":-0.5874595110266715,"51":-0.39231895159428803,"52":-0.46945148908950374,"53":-0.48267360749425503,"54":-0.631895963294892,"55":-0.38713419496836604,"56":-0.367900972897453,"57":-0.14351683100341792,"58":-0.3096015553138248,"59":-0.11918835455914703,"60":-0.17440917581166906,"61":-0.0635723891066067,"62":-0.34618818348955316,"63":-0.5185468819233295,"64":-0.5374703936101917,"65":-0.5673878648828516,"66":-0.15780087163801707,"67":-0.4301562853172516,"68":0.44015743705675503,"69":0.4341183230329912,"70":0.21700116681414686,"71":0.3723467543621292,"72":0.5142408711829937,"73":0.030406405586871417,"74":-0.533116492571702,"75":-0.6360073432561736,"76":-0.16891319947528294,"77":-0.31540138991947525,"78":-0.16529759027844196,"79":-0.5289353189622964,"80":-0.592618609673165,"81":-0.3860087202464021,"82":-0.5506515536163687,"83":-0.6097927742600295,"84":-0.5695608261687416,"85":-0.5832559323773887}},"26":{"bias":-0.060595206005867645,"weights":{"0":-0.9050983551672942,"1":-0.6533876345322006,"2":-0.7132351220025139,"3":-0.3049139833257375,"4":-0.8190159090179229,"5":-0.37238185702781584,"6":-0.34414731891158434,"7":-0.4748546530780135,"8":0.31532417481652225,"9":0.31877318250615577,"10":0.35844857091028165,"11":0.3219484403226142,"12":0.06830726403120073,"13":0.4399611347818806,"14":0.4109004637656867,"15":0.4303526007886958,"16":0.2762253931843827,"17":-0.09576019068936213,"18":-0.27965300485023453,"19":-0.6276903534646732,"20":-0.4852169463929357,"21":-0.5833303323406024,"22":-0.7902887716359518,"23":-0.28778301643012,"24":-0.44084437157987516,"25":-0.6693900037327103,"26":-0.47359212419533625,"27":-0.6185475289524764,"28":-0.06437265644638725,"29":-0.20447085685115649,"30":-0.11286216590181604,"31":-0.10961546154744704,"32":-0.13368792537249882,"33":-0.22369731953407873,"34":-0.22256476247617576,"35":0.02256089429314136,"36":0.2171195049617252,"37":0.20348782331347476,"38":0.44681935427516833,"39":0.46044727276152503,"40":0.3748010330853793,"41":0.4535461629629319,"42":0.33624313014079077,"43":0.2936274812615346,"44":0.3201635398812782,"45":0.42262046261607766,"46":0.39420649401522323,"47":0.41687176354510475,"48":0.39454208432407983,"49":0.16302686100563316,"50":-0.06453169365747517,"51":0.27573020006643667,"52":0.5365334501388116,"53":0.47427005585995513,"54":0.1430520606032052,"55":-0.40563720673756115,"56":-0.558213250120515,"57":-0.5189787189798691,"58":-0.5442149665706532,"59":-0.5057904545844207,"60":-0.0990109155780483,"61":0.09968875751359525,"62":-0.10718983900837836,"63":-0.16138619324762535,"64":0.01352498016680034,"65":-0.2946006195375347,"66":-0.06980706704054751,"67":0.008433429680584827,"68":0.35806021880577543,"69":0.2048791511868212,"70":0.0326726799159892,"71":0.0674800941080292,"72":0.4337906019344326,"73":0.24994110939661504,"74":0.5149793934765625,"75":0.40212145900420165,"76":0.14397175351889432,"77":0.20082110589138982,"78":0.19064768743917965,"79":0.4774844787485733,"80":0.6322899952935311,"81":0.3561959726857682,"82":0.24906270729263688,"83":0.27713986955823156,"84":0.5439660298182637,"85":0.41642646213219964}},"27":{"bias":-0.04928610039060493,"weights":{"0":-0.17568960899900724,"1":-0.1301221938144619,"2":-0.38415353320020884,"3":-0.05805572557181466,"4":-0.5767224645342388,"5":-0.10709141202354518,"6":-0.12212611854846309,"7":-0.0920596500178544,"8":-0.34277386416255745,"9":-0.4392736360470094,"10":-0.5769686879904511,"11":-0.31489745573177097,"12":-0.3144905714925381,"13":-0.6246739108098696,"14":-0.53330173471598,"15":-0.5063976934629412,"16":-0.3366417979770748,"17":0.4481186568588294,"18":0.33420077168449897,"19":0.5908913952961328,"20":0.42118292358687104,"21":0.23472170815562496,"22":0.21011821306648212,"23":0.1984821565835176,"24":0.27701673163144713,"25":0.21890325934858196,"26":0.39057069374157943,"27":0.3288110783975095,"28":0.5042373781141252,"29":0.13850624324588062,"30":0.23694507563545433,"31":0.4161548733399173,"32":0.009557618818007683,"33":0.14172287864911354,"34":0.12347525404979566,"35":0.19198958340047032,"36":0.22207789782520027,"37":-0.21330813668590307,"38":0.054723934079170554,"39":0.13324365329646143,"40":0.013020801546153411,"41":-0.08011958927679083,"42":-0.07693518463581549,"43":0.04865995048459771,"44":0.07774712009295573,"45":0.019775015737100315,"46":0.17096121236694065,"47":0.25319784979310156,"48":0.208178035288427,"49":0.016207961956446727,"50":-0.07054256018750635,"51":-0.060512085826137804,"52":-0.08582617859182336,"53":0.42044506850879365,"54":-0.09221023044996515,"55":-0.6482045113718937,"56":-0.5983478231180244,"57":-0.6088710924732625,"58":-0.5648055408848952,"59":-0.48800306407734395,"60":0.05426304095725414,"61":-0.2009728120384791,"62":0.3016646318730117,"63":0.03645344739276733,"64":-0.01770318007455294,"65":0.009138791624332232,"66":-0.5913439495501387,"67":0.17064645123815558,"68":-0.8766381334147759,"69":-0.3999816375498829,"70":-0.24560549090167708,"71":-0.8570575190878604,"72":-0.7098114659203156,"73":-0.5171439681878854,"74":0.6677001323971653,"75":0.6133867964737726,"76":0.3794783120481629,"77":0.3351178120024392,"78":0.08159983657324911,"79":0.6053374361814212,"80":0.4588970575289341,"81":0.6473506800497852,"82":0.43145833940596207,"83":0.47205126031907435,"84":0.5021745765992393,"85":0.47142801682109514}},"28":{"bias":-0.07660254471322558,"weights":{"0":-0.7411529749886284,"1":-0.8345942305801398,"2":0.433788465677142,"3":-0.7071175319796315,"4":-0.5892857475593167,"5":-0.5173646042694245,"6":-0.43476545437687464,"7":0.29919841997959873,"8":0.04188476493931862,"9":-0.10905631054162378,"10":-0.2088455195949365,"11":-0.08918614793752225,"12":-0.0425377340980333,"13":-0.008898319068083898,"14":-0.07048657518584267,"15":-0.2596606649818142,"16":-0.16905439266293454,"17":-0.10946444476893746,"18":0.08249618835641773,"19":-0.21971872818145807,"20":-0.2655551076829816,"21":-0.15062658864765213,"22":0.16670715071585193,"23":0.14282081687913306,"24":0.10336686415113612,"25":0.010626042901192284,"26":-0.15957813169268678,"27":0.05120458985231833,"28":-0.12315740113385264,"29":-0.09066871889837089,"30":0.11211649070279552,"31":-0.0738289734153581,"32":0.017800385492077478,"33":0.08745901910713783,"34":0.15420646160796134,"35":0.014013440006899322,"36":-0.2738281448189748,"37":0.222255024961794,"38":-0.15360651391437155,"39":-0.07001490596604448,"40":-0.2562324544885141,"41":-0.15643426958636306,"42":-0.11802663004137759,"43":0.04410837278021169,"44":0.0503934660435344,"45":-0.07442818485572604,"46":-0.2425623838412406,"47":-0.14342136904507924,"48":-0.2797964501299546,"49":-0.1857092825497057,"50":-0.27335786385606636,"51":-0.4365673137030075,"52":-0.2209622075435508,"53":0.0276939485473798,"54":-0.5050497448939779,"55":0.6610072532539362,"56":0.38359622246425557,"57":0.47138074790003837,"58":0.3561121172538478,"59":0.31989613680972073,"60":0.4229237706307081,"61":0.4462565468101761,"62":-0.6600262124732355,"63":-0.8299089984003556,"64":-0.747464104831885,"65":-0.6689576172953354,"66":-0.1272541793920214,"67":-0.6190610676803326,"68":0.7233238822281215,"69":0.2633931651119408,"70":0.3861019764131113,"71":0.7011335332144816,"72":0.6768510471779912,"73":0.35039459580612564,"74":0.2930301296594912,"75":0.22659665899402004,"76":0.04689653977191836,"77":0.024950399560683467,"78":0.3259559227867974,"79":0.41575139193086535,"80":0.4892338814514761,"81":0.19302595690371846,"82":0.29460954515485427,"83":0.4523667332500923,"84":0.1924181126573802,"85":0.23895840043267033}},"29":{"bias":-0.30794821132684774,"weights":{"0":-0.6688430635803214,"1":-0.6025893364570142,"2":0.8210550620058075,"3":0.4928130775730801,"4":0.943522217664295,"5":0.37860060621864683,"6":0.842865352373996,"7":0.6833911636692666,"8":-0.16054885170676672,"9":0.03482330279701711,"10":-0.2151994629851289,"11":-0.02076618911385858,"12":0.022901052662000192,"13":-0.16322137901344902,"14":-0.3117511448863815,"15":-0.14784840371430868,"16":-0.12047856297260517,"17":0.3913026387003397,"18":0.11080074166169368,"19":0.16493658139320483,"20":0.11376024947334923,"21":0.45264759957251444,"22":0.48604164528015587,"23":0.5374940909581694,"24":0.1429212489331121,"25":0.6561166142828722,"26":0.583213399181157,"27":0.6755575058711776,"28":0.3744810179052427,"29":0.15947707009247114,"30":0.24715786084039237,"31":0.33878015169138737,"32":0.10165718462943882,"33":-0.05934827129231474,"34":0.03278751561843589,"35":0.057664939605461055,"36":-0.3272488423305363,"37":-0.3702489170313597,"38":-0.33930186794173534,"39":-0.5370088642587286,"40":-0.5462909112132036,"41":-0.22533723158769564,"42":-0.2055345227712456,"43":-0.21961995549016716,"44":-0.4345428750030371,"45":-0.24523910657805312,"46":-0.23653576777871574,"47":-0.4166870725288637,"48":-0.1402846165777951,"49":-0.3482516695698019,"50":-0.03955967451284686,"51":-0.05017467694164044,"52":-0.3829270857752545,"53":-0.2622783420873925,"54":0.05071900971083243,"55":0.5253220816385126,"56":0.30227269580433525,"57":0.49879038118669505,"58":0.4435051717080888,"59":0.24846512452872577,"60":-0.08490132769651873,"61":0.11337214789603434,"62":0.047224537033496335,"63":0.15851387887374413,"64":0.1900822045536587,"65":0.012166182698670982,"66":-0.05033489822919981,"67":0.00018499809537009658,"68":0.021792817919642653,"69":-0.1325033890441469,"70":-0.00878007165655095,"71":-0.059884352743997095,"72":0.08700799945557973,"73":-0.10007581442134515,"74":-0.3757471369124155,"75":-0.432099291147827,"76":-0.04367444040667696,"77":-0.14328107920810773,"78":0.08416950620497028,"79":-0.20103560302769274,"80":-0.4119429684959156,"81":-0.2172257025189325,"82":-0.35949914904644925,"83":-0.05884356103231741,"84":-0.34126615466341986,"85":-0.0667110990676957}},"30":{"bias":-0.13996705119103595,"weights":{"0":0.07413879024437846,"1":-0.13266984274053029,"2":-0.2292410102120129,"3":-0.48332171333631546,"4":-0.7322230552394249,"5":-0.3375932795422007,"6":-0.34462875025963446,"7":-0.3198429228797124,"8":0.6276495023806976,"9":0.6151828045397276,"10":0.8784433464382995,"11":0.3545263686852523,"12":0.6002559062450531,"13":0.9254674414220279,"14":0.9518760413552096,"15":0.8849462719188166,"16":0.843641761194884,"17":-0.21446265629598038,"18":-0.12926368693574253,"19":-0.21693397949010024,"20":-0.5216681163575231,"21":-0.47744535862525667,"22":-0.16508653311369703,"23":-0.20485248495623395,"24":-0.21227502634182446,"25":-0.36980658775392844,"26":-0.596937273496078,"27":-0.3318844690920444,"28":-0.03866107151562651,"29":-0.051848208782808484,"30":-0.1539010334251821,"31":-0.17000366354678387,"32":-0.24842545821993042,"33":-0.02611171878643078,"34":-0.04777902626202226,"35":-0.02069242183419803,"36":0.051734980394261026,"37":-0.18223886785933655,"38":0.1347002952641983,"39":-0.08198868055809554,"40":-0.13686770541976687,"41":-0.25353388027073037,"42":0.0852069110797324,"43":-0.15353140844801846,"44":-0.06111398291940568,"45":-0.11307385885596583,"46":-0.09701702950081098,"47":-0.10085430278242806,"48":-0.12171352044567896,"49":0.049174120736257654,"50":-0.26129792618572484,"51":-0.5629705918784876,"52":-0.27791330942451387,"53":-0.7130718345913026,"54":-0.7178922214160408,"55":-0.04970684478560839,"56":0.24947275945615333,"57":0.21795102653900347,"58":0.08257391919438707,"59":0.06637862163024587,"60":0.16952260856750048,"61":0.24460524255195182,"62":0.8086134029707993,"63":0.5689919834512486,"64":0.6035693750620789,"65":0.543312105806413,"66":0.19173662519412302,"67":0.3956836783615471,"68":-0.10116062349393258,"69":0.01750145349920901,"70":-0.04115082996697899,"71":0.10114209448783319,"72":0.15407815021638274,"73":-0.01005075641913805,"74":-0.5694371100603652,"75":-0.3203185472394441,"76":-0.08931204752480451,"77":-0.035081517586584614,"78":-0.01633891433789698,"79":-0.44290220488860915,"80":-0.29227710359297737,"81":-0.2945433909770084,"82":-0.44762318256331735,"83":-0.1995660881188,"84":-0.1521024500664999,"85":-0.4201392504263718}},"31":{"bias":-0.008114925825487836,"weights":{"0":-0.6257754828473692,"1":-0.5693366260284607,"2":0.5993861750030015,"3":0.096643777726232,"4":0.48440795714238233,"5":0.19987126182090292,"6":0.41786348674539603,"7":0.4301062080803869,"8":0.20884526211595586,"9":0.4113357693857072,"10":0.5898536360344515,"11":0.3227223044670181,"12":0.2838998665136679,"13":0.7318901939243366,"14":0.7110800498810993,"15":0.6268052174911365,"16":0.8247131169611545,"17":-0.5638983334214651,"18":-0.4898779736128589,"19":-1.291327483133202,"20":-1.232669988307815,"21":-0.06827533784792643,"22":-0.028728410694334044,"23":-0.15941754765564953,"24":0.02295479136526395,"25":-0.029777977985508047,"26":-0.2776374718976277,"27":0.25052143358702017,"28":0.02673872854536591,"29":0.019820685996245143,"30":-0.04770801904915165,"31":0.06418476379337051,"32":-0.03614831121435981,"33":0.10634032100695218,"34":0.019430766229567388,"35":-0.14065838912300338,"36":-0.5615674007871023,"37":0.04471973968949874,"38":-0.49386411424983623,"39":-0.38343398894977476,"40":-0.4695619825276319,"41":-0.5095809078672974,"42":-0.5371583621069519,"43":-0.3679562567142857,"44":-0.33807211616784255,"45":-0.17716461438506712,"46":-0.40242492120468787,"47":-0.20113980422558944,"48":-0.24991191881448654,"49":-0.2813021329823984,"50":-0.43970457940800983,"51":-0.3533776261646263,"52":-0.7084821096202576,"53":-0.4305237440890367,"54":-0.4563371645093799,"55":0.45841607537265716,"56":0.19857824297430418,"57":0.4261477462942596,"58":0.4199348109201304,"59":0.40555292608140814,"60":0.16679493475333024,"61":0.03272007198064156,"62":0.5992007621282086,"63":0.6456267881351221,"64":0.631382342638879,"65":0.5885253159237918,"66":0.6258601086158957,"67":0.7343225271646124,"68":0.48025131992348774,"69":0.1881461002762789,"70":0.19956575958307893,"71":0.30262368703479625,"72":0.5258847489498164,"73":0.5258117550211351,"74":-0.45534689542530465,"75":-0.2509910238436802,"76":-0.14606785879462836,"77":-0.37333070892549025,"78":-0.31771283372975334,"79":-0.4672952937268233,"80":-0.4702881409691877,"81":-0.3004013582007239,"82":-0.33956894970370016,"83":-0.4787168713319064,"84":-0.452849339241789,"85":-0.2956809547108374}},"32":{"bias":-0.17003577033016812,"weights":{"0":-0.22492522927020522,"1":-0.23351156391284342,"2":0.6476560779778564,"3":-0.01590419412798532,"4":0.3250891421880183,"5":-0.051183516784628305,"6":0.12198104543864109,"7":0.5397153418012879,"8":-0.12911949042897847,"9":-0.15359457507436627,"10":-0.4375397850323338,"11":-0.2907101304566524,"12":-0.13178327830926254,"13":-0.2436364795014565,"14":-0.2559953557128579,"15":-0.2846802875756808,"16":-0.09363851606969166,"17":0.25120760179742224,"18":0.3223355416124076,"19":0.7525234424907457,"20":0.6069080915578435,"21":-0.8022004280052437,"22":-0.6472405871117813,"23":-0.47031780415604396,"24":-0.30741371339267726,"25":-0.5024132672217868,"26":-0.23713693106965592,"27":-0.7654564782177556,"28":-0.6350163818668247,"29":-0.3216570840766839,"30":-0.10868368642176984,"31":-0.3638412621696112,"32":-0.24128948331948427,"33":-0.14502138825542463,"34":0.07082906448177165,"35":0.008336117662203206,"36":0.024372187961603797,"37":0.13444221459886085,"38":0.16334410816075798,"39":0.022703994468813195,"40":0.2441042138574552,"41":0.00262011364175939,"42":0.19576146301017192,"43":-0.03477093941386086,"44":0.08971211029784364,"45":0.06079749346288595,"46":0.05866958529833837,"47":0.2062729245743448,"48":0.20165002644771143,"49":0.23449955730503647,"50":0.2342168720180876,"51":0.2281507062109832,"52":0.7697494244150336,"53":0.5613403989236704,"54":0.3786553802946264,"55":0.6558867224620095,"56":0.5758576530528364,"57":0.3935296989564585,"58":0.6798686703253678,"59":0.5533539191750183,"60":0.40044516532224,"61":0.304947204770041,"62":-0.5206860526077234,"63":-0.6683168089447102,"64":-0.5963529921995672,"65":-0.4763291051221553,"66":-0.28020227408148607,"67":-0.37407839777042723,"68":-0.06659021062756358,"69":0.03715699992926258,"70":-0.10142294785704972,"71":0.11713297932323413,"72":0.043751049926755825,"73":-0.043520400421422974,"74":0.13334811757458243,"75":0.2902116880766762,"76":0.010248095831013545,"77":0.06636974121652173,"78":0.05789997247482699,"79":-0.021932818322589,"80":0.20339750706370813,"81":0.06594566541127403,"82":0.28229882880117124,"83":0.10187873630838543,"84":0.18557271364229724,"85":0.09387595744587149}},"33":{"bias":-0.15784411697275097,"weights":{"0":0.9081222650022874,"1":0.7324288228477316,"2":0.14215186265902363,"3":-0.32803281757873076,"4":0.08445127125057568,"5":-0.34301274853707936,"6":-0.4080692679053536,"7":0.338448854695316,"8":-0.11339935177185542,"9":-0.059296939414848066,"10":-0.28849295408455716,"11":-0.03598389626410561,"12":-0.08984025688911418,"13":-0.32124451871602916,"14":-0.19000682503813449,"15":-0.34718194588739654,"16":-0.12286932670711295,"17":-0.0481632122337643,"18":0.04201837410254844,"19":-0.5532736216098244,"20":-0.4780035276815354,"21":0.2951540234859689,"22":0.2679708779401617,"23":0.22842942325735166,"24":0.06797830300576424,"25":0.32932010416649976,"26":0.17412305297538494,"27":-0.006872701205488839,"28":-0.08680256662294504,"29":0.3301286755783728,"30":0.3066214749782521,"31":-0.013008274839485743,"32":-0.07141369009159462,"33":0.06641557067910502,"34":0.03470822166524739,"35":0.048257158757033854,"36":0.17909020443791324,"37":0.05162538744528858,"38":0.3050982709464732,"39":0.21013388143598558,"40":0.20166872911158903,"41":0.49603301344393946,"42":0.40829133321733097,"43":0.5262585477415389,"44":0.4955592091332688,"45":0.5334293469448719,"46":0.49037423645329553,"47":0.6102381531843577,"48":0.20959323425597196,"49":0.42643667617352415,"50":-0.3198330237437472,"51":-0.20030550191286178,"52":-0.36833292463072637,"53":-0.32835976070294143,"54":-0.44379938034028843,"55":0.32342572918494783,"56":0.3031651415387819,"57":0.405013557556902,"58":0.5403313320932215,"59":0.3893873902853728,"60":0.24387208538400545,"61":0.402196919006412,"62":0.1169063641913004,"63":0.10092395648567927,"64":0.13866147327686282,"65":-0.2327832831428229,"66":-0.406555021222499,"67":-0.15208058492551285,"68":-0.7231475617996799,"69":-0.46648082308438316,"70":-0.25054877306764783,"71":-0.5881758376709427,"72":-0.3706941736277028,"73":-0.5533931860141985,"74":-0.700970580838789,"75":-0.5237682595755596,"76":-0.35603267673764066,"77":-0.06008372309070655,"78":-0.3703105367644839,"79":-0.5223147171946211,"80":-0.5146040303457253,"81":-0.3727836356839271,"82":-0.5729478505008759,"83":-0.5407668773579328,"84":-0.32766469760491346,"85":-0.27920177505642063}},"34":{"bias":-0.2318720604933384,"weights":{"0":0.9139817695946509,"1":1.1104450095363987,"2":0.20314351069253297,"3":-0.45646279619640656,"4":-0.448704717100288,"5":-0.30935723578521857,"6":-0.6128275845103578,"7":0.17580943814692795,"8":-0.2837339743816228,"9":-0.06947437603532075,"10":-0.015332652962757907,"11":-0.13220574599134768,"12":-0.27382918251090305,"13":-0.023968072018477764,"14":-0.3386531730144479,"15":-0.03495824211592353,"16":-0.3641833119275186,"17":0.15949678940163559,"18":0.07138151525197686,"19":0.2204688329166789,"20":0.15557669270579697,"21":-0.5294652153845523,"22":-0.4977881641318993,"23":-0.11607441379890868,"24":-0.23305215052015651,"25":-0.4792569272553,"26":-0.4988579470640046,"27":-0.2517030974933741,"28":-0.3618284677092408,"29":-0.021874199577224123,"30":0.04624723531447637,"31":-0.22609596857518122,"32":0.07066787331213738,"33":-0.07991227544169414,"34":0.029590974700140337,"35":0.12482411300900491,"36":0.09967217591028588,"37":0.15121134057808464,"38":0.3052165694201116,"39":0.023906018504732212,"40":0.35064072498986565,"41":0.3031987032716505,"42":-0.020899812075010932,"43":0.07995206984442177,"44":0.1713699401249736,"45":0.0357531622319978,"46":0.22601917923222098,"47":0.2902625591042263,"48":0.016852011043142285,"49":0.10121933927322355,"50":0.08655549462472725,"51":-0.15552741601537998,"52":0.2634459924735304,"53":-0.3449180213947478,"54":-0.06043549552231226,"55":0.27775650866562235,"56":0.1978324232406451,"57":0.4686993006956162,"58":0.4633742716602017,"59":0.3048395896271349,"60":0.3424442574440695,"61":0.28009179417329017,"62":0.2563641263586004,"63":0.14023436437559084,"64":0.10591474055243193,"65":0.27636873478506124,"66":0.0812991196276631,"67":0.11211961075501696,"68":0.02733800235176892,"69":-0.09218923051555418,"70":-0.19928726751089318,"71":-0.22534228824413496,"72":-0.021459843584787062,"73":-0.07519202994829954,"74":-0.45650586944285826,"75":-0.29823092346448166,"76":-0.08555646736411171,"77":-0.07154002058220162,"78":-0.12231691356296177,"79":-0.4453246700457272,"80":-0.5451637451872662,"81":-0.35685180303088704,"82":-0.3097493285125281,"83":-0.3784961616038523,"84":-0.3216858644883847,"85":-0.38264905138731903}},"35":{"bias":0.008680387823141289,"weights":{"0":-0.6399071674275894,"1":-0.5264202268690175,"2":-0.595847466162163,"3":-0.7917676619859119,"4":-1.3864440139328797,"5":-0.7140464055033227,"6":-0.8432732695663585,"7":-0.5937455957086144,"8":-0.4732297940868305,"9":-0.3622091452521148,"10":-0.7325774071138819,"11":-0.39284352723654115,"12":-0.3956632100238341,"13":-0.6275086228953517,"14":-0.809219421951778,"15":-0.6860195068987778,"16":-0.6736380926052286,"17":0.4319786612062544,"18":0.26859723403900393,"19":0.7393261439368755,"20":0.8014988665206606,"21":0.0243228023398456,"22":0.19698838960558285,"23":0.19625199628275417,"24":0.04300746311135106,"25":0.004680738283656493,"26":0.3013371002448655,"27":0.1507630785127975,"28":0.5002055518903143,"29":0.1769878250179358,"30":-0.08767517361324746,"31":0.27391612482545025,"32":0.20096697043678213,"33":-0.07160365917804729,"34":0.07583198359010555,"35":0.039193147835176606,"36":-0.31537127826142997,"37":-0.20266092857763063,"38":-0.492353428294297,"39":-0.5181451476942661,"40":-0.41647153982957663,"41":-0.331676819769515,"42":-0.3453721242401267,"43":-0.3720286660023379,"44":-0.25008168315264545,"45":-0.4034401503535817,"46":-0.3896953131143689,"47":-0.27526694497102583,"48":-0.46394757643572665,"49":-0.420277556075002,"50":0.2815062822603588,"51":0.16404683711495205,"52":-0.0360250226230823,"53":0.8945889528900037,"54":0.42833196502857607,"55":-0.3223519746191499,"56":-0.390915730927933,"57":-0.13575497138249976,"58":-0.3931752177439784,"59":-0.09530274302413086,"60":-0.011160116979740418,"61":0.07095176237948718,"62":0.037455841253188925,"63":0.10485147768368343,"64":0.09185668689480204,"65":-0.13084005066849905,"66":0.064640656539317,"67":0.07297978214403057,"68":0.153163614619879,"69":-0.09956339380897797,"70":-0.20060311067539266,"71":-0.19012468450630743,"72":0.027959357177573804,"73":0.2985688504184402,"74":0.990148742852105,"75":0.8536544978016652,"76":0.34945136946840755,"77":0.44948158022899365,"78":0.47013100339853764,"79":1.1081984835142635,"80":0.9180630399086928,"81":0.9891007542797559,"82":0.7876730444715592,"83":0.770108303993646,"84":0.8459882373110093,"85":0.8781123353647468}},"36":{"bias":0.0465285576392208,"weights":{"0":-0.016613360582701877,"1":-0.3143358174234116,"2":-0.4954752176763936,"3":-0.5863742767329078,"4":-1.2290854023685323,"5":-0.4932875785255256,"6":-0.6794801335925621,"7":-0.6171496278085274,"8":0.028693614025578323,"9":0.060404382059019095,"10":-0.038144828414868534,"11":0.19445901844954736,"12":0.029108431324913538,"13":0.24422013991827482,"14":0.1773354355681557,"15":0.30403631613804927,"16":0.2790558370790199,"17":0.1885767445975677,"18":0.16595267944018977,"19":-0.002944030603701552,"20":-0.21833045104448645,"21":0.7106531491213588,"22":0.6729901559144478,"23":0.4360041382261608,"24":0.4127517133236533,"25":0.8745797008312357,"26":0.31100521772168266,"27":0.6067148946544232,"28":1.272104348100889,"29":0.26686084025380774,"30":0.3194801614309622,"31":0.47712413128435033,"32":0.39296658977274124,"33":0.22550894746750672,"34":0.25007155652783136,"35":0.23810106167650025,"36":-0.18375768521828936,"37":-0.22750907425783445,"38":-0.12693161029793035,"39":0.03543672979545102,"40":-0.22191364298300725,"41":0.15140954989864203,"42":-0.07974965232409001,"43":0.13003501682661125,"44":0.04585314318770835,"45":0.11420397286934286,"46":0.05518906672908062,"47":-0.011522777582340583,"48":0.05523269981877173,"49":-0.07129760937672691,"50":-0.5918178357658785,"51":-0.717874305118153,"52":-1.102798457436675,"53":-0.02588995526956658,"54":-0.9599836578984577,"55":-0.45416941225298646,"56":-0.266397173742102,"57":-0.3728898685958617,"58":-0.2520683759621133,"59":-0.22514286254740426,"60":0.08883457794638233,"61":-0.06753027023069268,"62":0.21392989328412357,"63":0.06177972540541891,"64":0.1832134625762233,"65":0.12566529112844552,"66":-0.24426352478783822,"67":0.18989900563455664,"68":-0.5306076340538154,"69":-0.09619692474318577,"70":-0.35529984103441753,"71":-0.2641804614298398,"72":-0.488813992025687,"73":-0.13032280729792606,"74":0.46522263080746534,"75":0.4330620971840561,"76":-0.023986084984436544,"77":0.11078183934051693,"78":0.03543196300092724,"79":0.47784161659761576,"80":0.38339313309556905,"81":0.2964302599458275,"82":0.4300762170733755,"83":0.33355685450151107,"84":0.4628940740112923,"85":0.43579221083688385}},"37":{"bias":-0.2281590421150835,"weights":{"0":0.959185459440919,"1":0.8525160887161017,"2":-0.03607443376111935,"3":0.34167719312342776,"4":0.4077210655741014,"5":0.23902064367622874,"6":0.15313262871659347,"7":-0.053557742419793976,"8":0.2446850665768956,"9":0.022163140574971183,"10":0.2953846231662266,"11":0.1222590147078724,"12":0.32141833931694697,"13":0.24129930258682855,"14":0.377756565606076,"15":0.4152253909913254,"16":0.5050140732103179,"17":-0.09890570249128038,"18":-0.16670496913345925,"19":-0.8511049106259077,"20":-0.7475295158010374,"21":0.4147791112241521,"22":0.4724312220170256,"23":0.40839421767396766,"24":0.295796196736561,"25":0.3440447021464117,"26":0.8213817670608051,"27":0.19419370076904044,"28":0.5098672545038441,"29":0.11040073322846268,"30":0.30201942915590957,"31":0.32255554840804107,"32":0.1112821652828161,"33":0.09532026124812107,"34":0.07652480288480909,"35":0.08049954243470683,"36":-0.03851019178098186,"37":0.12281049073008476,"38":-0.20795828950643153,"39":-0.0849465281168719,"40":-0.0978838113409327,"41":-0.15201125342987198,"42":-0.07888541237860115,"43":0.008965292629985593,"44":-0.2835301261494886,"45":-0.026851219885218852,"46":-0.10447038577919622,"47":-0.2303914939196726,"48":-0.2677500639738511,"49":0.028045360113998614,"50":0.6930241026065139,"51":0.7041843154598124,"52":0.35738043829446353,"53":-0.019863885521589714,"54":0.8661051271227505,"55":-0.2624758117646609,"56":-0.36996111279670235,"57":-0.1272894447372163,"58":-0.3122591318074335,"59":-0.16577911441089155,"60":-0.27694476276470065,"61":-0.08797058032586522,"62":-0.18500145124084347,"63":-0.16029767797115682,"64":-0.06850581995816268,"65":-0.13055615349840172,"66":0.18250242341446243,"67":0.10667402384857941,"68":0.16122572900815285,"69":0.2592352558875752,"70":-0.11194148098910428,"71":0.25357307916646193,"72":0.254692928036951,"73":0.30674599440451894,"74":-0.4709700158892211,"75":-0.42329702479154657,"76":-0.38940019877733684,"77":-0.1478824059807708,"78":-0.35969262766365906,"79":-0.5840936032696604,"80":-0.4985819910068832,"81":-0.5801434077191276,"82":-0.48591462053235623,"83":-0.3562207785527791,"84":-0.5386052527842888,"85":-0.5566640077443893}},"38":{"bias":-0.024428862756458076,"weights":{"0":-1.4246362844112095,"1":-1.3353888950789896,"2":-0.1393473147046135,"3":0.22611618038187684,"4":0.11576168978743975,"5":0.34793336522016644,"6":0.4171488575622267,"7":-0.16902464566562275,"8":0.6339307451900461,"9":0.6725192666371532,"10":0.8464105595232576,"11":0.6777166664915849,"12":0.4255594679492108,"13":0.9540590024598987,"14":0.7372933522618015,"15":0.9422926251764653,"16":0.8451403274562863,"17":-0.2275105975274892,"18":-0.44192505333043297,"19":-0.842983514463315,"20":-0.8204153974997526,"21":0.32339560226610864,"22":0.1687939783177221,"23":0.08946210630670559,"24":0.25399581841222746,"25":0.11271700182476624,"26":0.5267675401302363,"27":0.3245243674398718,"28":0.5537472603133157,"29":0.17611279621505221,"30":0.2867786877920134,"31":0.044837622674817,"32":0.20752647418336695,"33":0.15778829194473357,"34":0.16837801535557037,"35":-0.14040549260507654,"36":-0.49641344914834146,"37":-0.5898107164260447,"38":-1.0350226325447542,"39":-0.9972094012611836,"40":-0.9705893252680514,"41":-0.7246319395309135,"42":-0.6751807561827955,"43":-0.8618627985186711,"44":-0.810419717780174,"45":-0.7029231070217448,"46":-0.767909049313185,"47":-0.8024719063249947,"48":-0.8268892753172017,"49":-0.8053932644916073,"50":0.46009402964126783,"51":0.2715175953849663,"52":0.3109999629209427,"53":0.7730538255324825,"54":0.7614427170524094,"55":-0.38037009372388286,"56":-0.35167446654830664,"57":-0.16265368077644723,"58":-0.27320240528456513,"59":-0.299136109224087,"60":-0.05704340101599249,"61":-0.28315647006695743,"62":0.5919708111276777,"63":0.6662653260548227,"64":0.5438442796190749,"65":0.4580369091010642,"66":-0.16507062635527212,"67":0.4125598678999911,"68":-0.3190636707517123,"69":-0.41105211841605527,"70":-0.07949703431317441,"71":-0.26051982990624795,"72":-0.2900158801823772,"73":0.1369282326019616,"74":0.8883728337444606,"75":0.7582395313078946,"76":0.43479063346129393,"77":0.1490749744150898,"78":0.31218013623102675,"79":0.7137776774536112,"80":0.6901353422548927,"81":0.7969399594588443,"82":0.8581292841573817,"83":0.6671084925305265,"84":0.7103918866091936,"85":0.8173167325141116}},"39":{"bias":-0.06904227448306338,"weights":{"0":0.012124152278153826,"1":-0.13399105564566724,"2":0.2240986404869382,"3":-0.8566535221113032,"4":-0.7088040004524254,"5":-0.7729580391916472,"6":-0.9229861730346561,"7":0.2378589099891087,"8":-0.032362106335997204,"9":-0.1294623856840173,"10":-0.1044614986671227,"11":-0.005659283951704679,"12":0.05325872709586646,"13":-0.16459387322562563,"14":-0.08118385308653742,"15":0.026651463717929022,"16":0.052647444355898805,"17":-0.1060230791443657,"18":0.0794559828447366,"19":-0.17110959867031236,"20":-0.2683788031211434,"21":-0.7389982772554963,"22":-0.4358318013912422,"23":-0.28078461339636024,"24":-0.4181671589664816,"25":-0.7068538314153373,"26":-0.8085711145876748,"27":-0.5048142018261119,"28":-0.595392529572496,"29":-0.15646120160853402,"30":-0.16198985546025654,"31":0.041242997521249394,"32":-0.014191264816324435,"33":-0.12699258041721828,"34":-0.08724324895588388,"35":-0.12259872005324543,"36":0.23023974718397322,"37":0.4209875117261965,"38":0.3144935670169625,"39":0.37690893157232164,"40":0.06718230010305293,"41":0.1627366555921616,"42":0.295903557160277,"43":0.4253406611455943,"44":0.14265024986143673,"45":0.3342373112079983,"46":0.4229051994445503,"47":0.3230972131808874,"48":0.34165424405875466,"49":0.09686892709800658,"50":-0.2127013338573628,"51":-0.4395574607160977,"52":0.14426132247012724,"53":-0.4296641818415426,"54":-0.5546643136729862,"55":0.6570859815203497,"56":0.6341529666104411,"57":0.7623901816583057,"58":0.7047571230580351,"59":0.748633852705786,"60":0.3036883898632785,"61":0.4533417127161988,"62":-0.6784827516885833,"63":-0.542022235431336,"64":-0.5910580970434288,"65":-0.5829853905219821,"66":0.007158899056574487,"67":-0.35952183834709417,"68":0.6353408381419005,"69":0.3949542530377395,"70":0.30061662278039786,"71":0.6139705737570961,"72":0.7363259776149497,"73":0.45102767732911137,"74":0.07697733896065836,"75":-0.2153299301611681,"76":0.2012313732974694,"77":-0.06128452762959202,"78":-0.1646650019344759,"79":-0.06569589644394772,"80":-0.24976294254857212,"81":0.10415857094201215,"82":-0.005809243405075845,"83":-0.02776569033422769,"84":-0.07046285681158408,"85":0.1238488394908208}},"40":{"bias":-0.3096995614804685,"weights":{"0":0.7142777625697033,"1":0.6918582668923833,"2":0.7418053306590314,"3":0.738863277173263,"4":1.1807979145262868,"5":0.5545052486558231,"6":0.6560121464098869,"7":0.7339482923557457,"8":0.22290729440902357,"9":0.347042276188463,"10":0.5212535934990368,"11":0.24710439597378112,"12":0.41025577784243844,"13":0.44957230308206386,"14":0.31925319165379124,"15":0.43531747701430246,"16":0.6114997179395893,"17":-0.3528125504239523,"18":-0.3542777173276457,"19":-0.531083954802333,"20":-0.4382815731834812,"21":-0.5222440422917258,"22":-0.5751206600520488,"23":-0.0636258486617304,"24":-0.14796969982937877,"25":-0.5808110966154096,"26":-0.2557356946020096,"27":-0.5213619871317634,"28":-0.5533459128404659,"29":-0.1432577300501065,"30":-0.019051320007675825,"31":0.008926548568577669,"32":0.06590501008298923,"33":-0.16425585023419742,"34":-0.06354812630639535,"35":-0.17505456653134696,"36":0.28206287633629684,"37":-0.19133137633856123,"38":0.08924087584784444,"39":-0.10959613437843752,"40":-0.054726334001834825,"41":0.20064569058105475,"42":-0.139332026521779,"43":0.11414143325349196,"44":-0.05714485434353949,"45":0.010633983537409323,"46":0.22913396967151892,"47":-0.05466524699429202,"48":0.21069474881346617,"49":0.12373838051438084,"50":0.3365385550621441,"51":0.08078230801572557,"52":0.7257084461812272,"53":-0.07985313825184369,"54":0.01649224341653049,"55":0.41239719561318894,"56":0.4353212325171031,"57":0.1924165017469166,"58":0.24720908138115444,"59":0.3513565691964624,"60":-0.062161557268318776,"61":0.0613642314057728,"62":-0.4151735530344878,"63":-0.1347661324514432,"64":-0.3563266881191562,"65":-0.4041133825189518,"66":-0.34787956314527174,"67":-0.36105118178425233,"68":-0.36212939717788295,"69":-0.1479691788893105,"70":-0.22521251867772518,"71":-0.34127811746978026,"72":-0.1724251594500038,"73":-0.013722834537141562,"74":-0.5323720153228235,"75":-0.4668336643508647,"76":-0.1480624239963377,"77":-0.28077222814971725,"78":-0.18406383586557215,"79":-0.4644132252782067,"80":-0.6009522015934028,"81":-0.5366116777109111,"82":-0.39096542129964085,"83":-0.20974286220209942,"84":-0.14024942184601627,"85":-0.32914838027452403}},"41":{"bias":-0.36579978538300295,"weights":{"0":0.7161258366624476,"1":0.7128011816934829,"2":0.04491986395119712,"3":-0.31822133334011093,"4":-0.3089896101001915,"5":-0.1979945580292947,"6":-0.3225251262149453,"7":0.07412886542899608,"8":-0.12851895441545888,"9":-0.3192465095666001,"10":-0.2908145688697854,"11":-0.3605767366310731,"12":-0.21628941454462913,"13":-0.358762093083567,"14":-0.25735560376910804,"15":-0.1895535438229077,"16":-0.19658524047652975,"17":0.3553554818079,"18":0.6082471188714808,"19":1.2859872063974889,"20":1.2938252678696527,"21":0.1237720564652206,"22":-0.054270762658815315,"23":-0.15806945797130104,"24":-0.13010786874056915,"25":-0.1456570906314148,"26":-0.2583070682161777,"27":-0.18554682632595149,"28":-0.04204985021610914,"29":0.1610754770768093,"30":-0.05080769914001874,"31":-0.12165262437877238,"32":-0.024293019476629825,"33":0.21926710368418179,"34":-0.16000226496436942,"35":0.10235887724702195,"36":-0.47932027911920894,"37":0.4627920846999237,"38":-0.28397055700211626,"39":-0.3698421124197247,"40":-0.14829352710868504,"41":-0.2918244919865428,"42":-0.35727121420815006,"43":-0.37978473730162493,"44":-0.2627401902171983,"45":-0.002480119286991967,"46":-0.09420969106908578,"47":-0.30217232658958904,"48":-0.30683028955935576,"49":-0.058973914517231184,"50":0.03964997115064111,"51":-0.2830950197897616,"52":0.00021255822405147427,"53":-0.5902953584856679,"54":-0.1438453131480308,"55":0.23257621494684536,"56":0.38891968171717567,"57":0.2756895411050399,"58":0.13143779463797828,"59":0.22158520110558502,"60":0.1988541059879011,"61":0.33636771714924607,"62":-0.015766007466788228,"63":-0.20993799606158137,"64":-0.19628093286952245,"65":-0.2049569503814595,"66":0.7602561976471074,"67":-0.009029668830120833,"68":1.038042289976797,"69":0.5544048618049855,"70":0.6978501449277557,"71":1.1272464286483213,"72":1.082957491217099,"73":0.849497864824672,"74":-0.743191552570616,"75":-0.5691388338327671,"76":-0.13107713376949234,"77":-0.2525364795509323,"78":-0.18015024645139374,"79":-0.6239825694036117,"80":-0.49626015403557916,"81":-0.5902439265397896,"82":-0.2746950715976473,"83":-0.5275226327166617,"84":-0.5128608539679819,"85":-0.39398444713162384}},"42":{"bias":-0.18243480882729518,"weights":{"0":0.9917834521736554,"1":0.9195956967082184,"2":-0.26085941651045075,"3":0.7526906595222896,"4":0.8747808764611733,"5":0.7730764143385229,"6":0.5145665156533383,"7":0.22012146840435715,"8":-0.12727929653530345,"9":-0.06544641107451754,"10":-0.31194736097318243,"11":-0.1359657635348592,"12":-0.13133804995918777,"13":-0.1404035091882505,"14":-0.45527736116338025,"15":-0.30630633834576837,"16":-0.12653428576033515,"17":0.19272794567594728,"18":0.3823223972118238,"19":0.7400059860485289,"20":0.5481474031909683,"21":-0.787153137030545,"22":-0.7384198344284901,"23":-0.4089915587648856,"24":-0.3093706199130439,"25":-0.7735212802688215,"26":-0.2677344742246792,"27":-0.4910244924396926,"28":-0.5548554256692143,"29":-0.3569389515874177,"30":-0.3261293381924839,"31":-0.07649284490117125,"32":-0.09591462088185813,"33":-0.21616977962076286,"34":-0.25337206493698045,"35":-0.04925642721745706,"36":-0.10110367912588931,"37":0.2470585691992693,"38":-0.03410920045423662,"39":0.12396987070998439,"40":0.044866600613250374,"41":0.09340285370147802,"42":-0.06118121676309404,"43":0.1259431278151238,"44":-0.05354166607814486,"45":-0.0014244257848357008,"46":0.1495517059573489,"47":-0.06428649557572931,"48":-0.16289508973915742,"49":0.1414834301229385,"50":0.28725296287243207,"51":0.5590594149261388,"52":0.967460348667994,"53":-0.0388425698827964,"54":0.4698077555010789,"55":-0.4475956432742338,"56":-0.303598250874789,"57":-0.16479956734071027,"58":-0.4289300216220158,"59":-0.4462820410582047,"60":-0.46742934145042275,"61":-0.14192109117014404,"62":0.9208434483945053,"63":0.7154396220109932,"64":0.6181159916201694,"65":0.7001575894718415,"66":0.6226303687618745,"67":0.7649117226542754,"68":0.35131404369552977,"69":0.29363748245236515,"70":0.13244682412417394,"71":0.5276407922468195,"72":0.44545260030359585,"73":0.4112781640046506,"74":-0.2822168656548407,"75":-0.5478434297445249,"76":-0.3448840021237057,"77":-0.25269539967889143,"78":-0.02744924998117373,"79":-0.3508870437018981,"80":-0.30328719020696804,"81":-0.12782275319708894,"82":-0.42356892515167144,"83":-0.422840306152408,"84":-0.2871243437733404,"85":-0.1256615265159364}}},{"greetings":{"bias":0.03417730927910534,"weights":{"0":-0.8951634653796969,"1":-1.4079660637515568,"2":-1.2126002814586754,"3":-0.4718174991072196,"4":-0.8409795227920955,"5":-0.34130154436347815,"6":1.130860469067863,"7":-0.28963560031181057,"8":-1.1684583258353576,"9":1.8862228897704343,"10":-1.2571988733030637,"11":-0.09127319750554791,"12":-1.1020380248726627,"13":-0.5200379919333551,"14":-1.2959945265043071,"15":1.208329936344947,"16":-0.24139423388123274,"17":-0.9659021578176842,"18":-0.34853711295208606,"19":0.562214284260299,"20":0.919875583137353,"21":-1.0187022622723194,"22":-0.00748738113813152,"23":0.6926216497615779,"24":-1.1271361242536726,"25":0.7162644644781865,"26":-0.9439925497586299,"27":-0.4683139402067924,"28":-0.9161586365081323,"29":-1.161557617026807,"30":0.09807069672307019,"31":-0.628041620502721,"32":-0.44103376119943855,"33":1.1058124087556072,"34":1.291760804493534,"35":-0.7420849895930315,"36":-0.30426859790060035,"37":1.0589466473027236,"38":-2.1834455417474703,"39":0.24706588629273107,"40":0.6656552269434267,"41":1.0115211853139683,"42":1.010857401500808}},"status":{"bias":-0.3321304749024834,"weights":{"0":0.3575454486262924,"1":-0.6267539578603111,"2":-1.2108412706696772,"3":0.543998052874684,"4":-0.5105441808941383,"5":0.15062882827293675,"6":-0.43817316205025053,"7":0.24081563542896006,"8":-0.6265014306647376,"9":0.5324647739067707,"10":-0.39598398566759296,"11":-0.03699907166231638,"12":1.853381199120839,"13":-0.03049375175904521,"14":1.7145846680853642,"15":-0.6090089674591356,"16":-0.6910771867785949,"17":0.21060198684443648,"18":-0.40042358814350326,"19":-1.3090019170760157,"20":0.007203522679456207,"21":-0.7125332692741119,"22":1.6658016952836094,"23":-1.026072826892117,"24":-1.2646495200744219,"25":0.03997849290252044,"26":-1.3765970755158023,"27":-0.8604283820652815,"28":-0.9413352858187722,"29":1.5590903060317907,"30":-1.0154237479109254,"31":1.095232835727696,"32":0.4857755029101467,"33":-0.22261618935733657,"34":-0.740220658101679,"35":-2.3681316220141726,"36":-2.2350252701176956,"37":0.22065024319790633,"38":0.11450328540452466,"39":-1.2496435738604144,"40":1.8165244613430864,"41":-0.5547533978127083,"42":1.305715765584734}},"thanks":{"bias":-0.0021473461830617793,"weights":{"0":-1.1462661408203862,"1":-0.1914947690096555,"2":1.006336870348478,"3":-2.4895398382503258,"4":-1.120391299467298,"5":1.0332807643279203,"6":-0.5831764662501501,"7":-2.6496796853827784,"8":-1.897356010728083,"9":1.1523756844827848,"10":-0.439352128424416,"11":1.0277663399400867,"12":0.21778837573081355,"13":0.13003913542484938,"14":-1.3745006854898256,"15":0.6522433771960329,"16":-0.2573519948516615,"17":-0.4655383328233814,"18":-0.30316010806079774,"19":0.5918875568645666,"20":-1.4543813132071237,"21":-1.0585968857249146,"22":0.8881658414524097,"23":1.5738088652029696,"24":-1.1164364526508512,"25":-0.588709174624469,"26":1.108959185390525,"27":-1.4833083805653875,"28":-0.2799983765202173,"29":-0.6172063643850055,"30":2.4006032523692937,"31":1.9181065387527305,"32":-0.8369678713166999,"33":-0.8707372548478999,"34":-0.6905373511369414,"35":-1.7111258286630477,"36":0.23299456777394537,"37":0.5534460648214419,"38":2.4443723096363814,"39":-0.08128955146799471,"40":1.0037515985749679,"41":-0.882233735262225,"42":-0.7552959164608213}},"agreements":{"bias":-0.37305782521227554,"weights":{"0":0.2632546032336133,"1":-0.2903690328355932,"2":0.09329968312093948,"3":-0.11108044096427841,"4":-0.15059676338500128,"5":-0.36406139422166617,"6":1.1196087421275374,"7":1.8121135411291918,"8":-0.5755959530549456,"9":-1.017929054001667,"10":0.7105797111181612,"11":-0.8168096925691464,"12":-1.1486116450244437,"13":-1.7319715489948222,"14":-0.3298803738279616,"15":-1.7140057350932247,"16":-0.5126077369621644,"17":1.308098121185375,"18":-0.6900671807058767,"19":0.6203664630079314,"20":0.11279266572641214,"21":0.9671604483864897,"22":-1.3023111749961016,"23":-0.11113823866191012,"24":-1.204790814050869,"25":0.36063880148649763,"26":-0.7436065475514632,"27":0.6684276237579833,"28":-0.2906851873252145,"29":0.09276967908043839,"30":-0.5117571613838876,"31":-1.9608939220150856,"32":0.9345772101548596,"33":-0.9372076040337842,"34":0.1086738893552235,"35":1.2047830750454926,"36":-0.23776245055434173,"37":-1.428759571529097,"38":-1.3067041113547893,"39":-0.18610983730906333,"40":-1.0463448369875556,"41":1.9651092248141984,"42":0.873008864636158}},"fwords":{"bias":-0.5619361971066207,"weights":{"0":1.0732067268369072,"1":0.8186824099026124,"2":-1.1836947572420973,"3":0.521340625519311,"4":1.2768517178156586,"5":-2.171165699165011,"6":1.5685662111353433,"7":1.3685722967768776,"8":-0.07802462430002276,"9":0.5956651897863976,"10":-1.2475333539825872,"11":-0.18749540258857847,"12":-1.9040364788270996,"13":-1.0952063686485514,"14":-0.2004396928855123,"15":2.3042614536782686,"16":-0.4627804571433434,"17":-1.003117533337456,"18":-2.170243038969975,"19":-1.785598949747724,"20":0.32156969217730913,"21":-1.1609252102914263,"22":0.16739931157419802,"23":0.14767020158987723,"24":2.2455501063412524,"25":0.16198811815867342,"26":-1.6475907801363578,"27":0.6955065306225341,